svm_type c_svc
kernel_type rbf
gamma 2
nr_class 2
total_sv 3864
rho 0.665696
label 0 1
probA -2.08119
probB 0.162489
nr_sv 1934 1930
SV
2 1:0 2:0.100887 3:0.0463869 4:0.0585985 5:0.106301 6:0.0916057 7:0.0768079 8:0.132705 9:0.097383 10:0.0299174 11:0.115817 12:0.171297 13:0.0611941 14:0.152189 15:0.161718 16:0.0338398 17:0.141283 18:0.0549464 19:0.0453045 20:0.0845967 21:0.129587 22:0.0365179 23:0.066655 24:0.124962 25:0.234135 26:0.259257 27:0.0935505 28:0.158588 29:0.173161 30:0.199945 31:0.246655 32:0.121145 33:0.30537 34:0.138074 35:0.259806 36:0.203596 37:0.131905 38:0.175815 39:0.225246 40:0.121488 41:0.115917 42:0.0559593 43:0.164569 44:0.229235 45:0.146986 46:0.128656 47:0.160969 48:0.123089 49:0.0854217 50:0.115256 51:0.088528 52:0.0663139 53:0.0642575 54:0.0970123 55:0.0979097 56:0.169875 57:0.156659 58:0.0171845 59:0.0443804 60:0.125655 61:0.0760787 62:0.0874454 63:0.0156792 64:0.395989 65:0.910772 66:1.02033e-10 67:1.35323e-16 68:1.09278e-17 69:3.56774e-09 70:0.999999 71:0.244038 
1.97249512217511 1:0 2:0.339968 3:0.0378862 4:0.0326179 5:0.0777828 6:0.0637022 7:0.122952 8:0.105088 9:0.0730988 10:0.214707 11:0.0321989 12:0.11988 13:0.0937538 14:0.0738233 15:0.0595973 16:0.0883874 17:0.0199905 18:0.146635 19:0.15337 20:0.0534673 21:0.332533 22:0.126079 23:0.17012 24:0.0967841 25:0.200014 26:0.22557 27:0.0704033 28:0.109435 29:0.174466 30:0.221661 31:0.0441712 32:0.178721 33:0.231592 34:0.159464 35:0.0932927 36:0.0971153 37:0.260497 38:0.0423384 39:0.108318 40:0.224168 41:0.257043 42:0.233073 43:0.129395 44:0.140424 45:0.0548995 46:0.019682 47:0.147099 48:0.110001 49:0.0932776 50:0.0297972 51:0.0188806 52:0.0768802 53:0.0768202 54:0.171 55:0.125715 56:0.0664947 57:0.0649089 58:0.0769317 59:0.0687662 60:0.116226 61:0.00451012 62:0.233146 63:0.0199101 64:0.615015 65:0.910784 66:8.30669e-10 67:1.63377e-16 68:8.27008e-17 69:3.56774e-09 70:0.999999 71:0.244038 
1.858689893752378 1:0 2:0.267502 3:0.31445 4:0.439654 5:0.209704 6:0.360748 7:0.296237 8:0.180461 9:0.202125 10:0.0500079 11:0.158846 12:0.128162 13:0.0870949 14:0.141508 15:0.112942 16:0.322034 17:0.161909 18:0.283152 19:0.166016 20:0.199063 21:0.327411 22:0.179907 23:0.206553 24:0.164304 25:0.183597 26:0.266135 27:0.100589 28:0.138637 29:0.280031 30:0.150573 31:0.269326 32:0.0778277 33:0.194003 34:0.209984 35:0.267232 36:0.200106 37:0.358244 38:0.277912 39:0.278068 40:0.14658 41:0.0805169 42:0.209653 43:0.161761 44:0.269921 45:0.280915 46:0.185974 47:0.232812 48:0.301723 49:0.187742 50:0.306203 51:0.171434 52:0.0900033 53:0.0172989 54:0.138259 55:0.174063 56:0.0463495 57:0.181273 58:0.200401 59:0.260112 60:0.357716 61:0.147737 62:0.442002 63:0.32244 64:0.126454 65:0.912957 66:6.4101e-07 67:3.69679e-10 68:2.11141e-09 69:3.56774e-09 70:0.999999 71:0.244038 
2 1:0 2:0.0965795 3:0.0555548 4:0.0569714 5:0.0497956 6:0.0573624 7:0.0957031 8:0.0665561 9:0.0686459 10:0.0440694 11:0.0410486 12:0.0497454 13:0.0634458 14:0.145872 15:0.00640082 16:0.0686315 17:0.142361 18:0.0596714 19:0.0109033 20:0.0358169 21:0.118446 22:0.0950705 23:0.255793 24:0.0563699 25:0.1398 26:0.0471249 27:0.162503 28:0.200056 29:0.172259 30:0.219653 31:0.0733933 32:0.254528 33:0.0467404 34:0.148149 35:0.0905571 36:0.197577 37:0.0844866 38:0.151579 39:0.138212 40:0.19796 41:0.0593805 42:0.248898 43:0.02873 44:0.0965633 45:0.118329 46:0.0272658 47:0.0135586 48:0.0177187 49:0.0417388 50:0.0149283 51:0.093532 52:0.064841 53:0.0294986 54:0.103187 55:0.0787089 56:0.0614861 57:0.0892203 58:0.0355077 59:0.0145944 60:0.0716053 61:0.133965 62:0.131862 63:0.0679207 64:0.379117 65:0.910772 66:1.19257e-10 67:3.93215e-16 68:3.98567e-17 69:3.56774e-09 70:0.999999 71:0.244038 
2 1:0 2:0.126938 3:0.0798911 4:0.0526923 5:0.0468945 6:0.0501023 7:0.108069 8:0.0960809 9:0.102438 10:0.128762 11:0.0852433 12:0.0879321 13:0.0413184 14:0.0496513 15:0.0669511 16:0.097139 17:0.0401471 18:0.116822 19:0.0836513 20:0.0559284 21:0.0617449 22:0.00865789 23:0.055559 24:0.0559775 25:0.0929719 26:0.207815 27:0.142172 28:0.0828786 29:0.0923605 30:0.0283311 31:0.0970054 32:0.290977 33:0.0438313 34:0.0553624 35:0.183506 36:0.0570412 37:0.235183 38:0.133085 39:0.152438 40:0.0530672 41:0.150774 42:0.0779509 43:0.0387022 44:0.0373688 45:0.0852011 46:0.0993293 47:0.0523246 48:0.0293608 49:0.0407007 50:0.0683958 51:0.130663 52:0.113337 53:0.0201774 54:0.0750414 55:0.133639 56:0.148972 57:0.0488482 58:0.0644222 59:0.119614 60:0.126186 61:0.11111 62:0.158845 63:0.121055 64:0.381975 65:0.910774 66:1.79498e-10 67:7.45639e-16 68:9.43313e-17 69:3.56774e-09 70:0.999999 71:0.244038 
2 1:0 2:0.12855 3:0.0755592 4:0.0515268 5:0.0113071 6:0.0767441 7:0.124982 8:0.0396939 9:0.0584308 10:0.108114 11:0.0261172 12:0.0671124 13:0.0610822 14:0.0734525 15:0.0575671 16:0.0482337 17:0.106151 18:0.0830329 19:0.0646572 20:0.0670442 21:0.237773 22:0.0620178 23:0.135799 24:0.148432 25:0.0646472 26:0.23632 27:0.098329 28:0.149558 29:0.217856 30:0.30203 31:0.185115 32:0.109702 33:0.248089 34:0.0366661 35:0.258625 36:0.0693818 37:0.0266185 38:0.247031 39:0.13581 40:0.186044 41:0.103794 42:0.213025 43:0.075387 44:0.0281572 45:0.129489 46:0.0579104 47:0.15934 48:0.0691119 49:0.0614045 50:0.0230941 51:0.0294387 52:0.0748389 53:0.0230108 54:0.131729 55:0.0673175 56:0.0808083 57:0.103718 58:0.0333143 59:0.0544447 60:0.0518699 61:0.140671 62:0.147594 63:0.0839075 64:0.405282 65:0.910774 66:1.7808e-10 67:6.10272e-16 68:7.1039e-17 69:3.56774e-09 70:0.999999 71:0.244038 
1.860352017949415 1:0 2:0.0813676 3:0.0427848 4:0.0409657 5:0.0927014 6:0.0624777 7:0.058314 8:0.165877 9:0.125132 10:0.0227965 11:0.04038 12:0.0176083 13:0.0246452 14:0.046146 15:0.0483311 16:0.0535981 17:0.077649 18:0.00858228 19:0.0836321 20:0.0573597 21:0.140932 22:0.0576666 23:0.210187 24:0.0852818 25:0.083328 26:0.0272165 27:0.398686 28:0.0727708 29:0.235833 30:0.133178 31:0.242742 32:0.0363471 33:0.193604 34:0.0559188 35:0.16532 36:0.20949 37:0.0572956 38:0.0755497 39:0.117783 40:0.147206 41:0.421558 42:0.0726641 43:0.0879204 44:0.177274 45:0.134048 46:0.105235 47:0.018447 48:0.134108 49:0.0204822 50:0.0136325 51:0.110678 52:0.116142 53:0.0417838 54:0.0301282 55:0.0647209 56:0.206918 57:0.0767539 58:0.0334578 59:0.103189 60:0.0984681 61:0.0292232 62:0.0420288 63:0.0342195 64:0.393454 65:0.91077 66:5.8017e-11 67:9.73413e-17 68:4.63518e-18 69:3.56774e-09 70:0.999999 71:0.244038 
0.8778717867935817 1:0 2:0.280416 3:0.329017 4:0.431959 5:0.270271 6:0.365213 7:0.246843 8:0.163901 9:0.216696 10:0.0370423 11:0.190585 12:0.167061 13:0.284183 14:0.25035 15:0.266902 16:0.107364 17:0.217812 18:0.210136 19:0.177098 20:0.119388 21:0.166224 22:0.0916669 23:0.233634 24:0.0822801 25:0.217165 26:0.103774 27:0.286506 28:0.231055 29:0.290984 30:0.243998 31:0.245928 32:0.0800712 33:0.316408 34:0.253184 35:0.141045 36:0.478894 37:0.101528 38:0.107153 39:0.196102 40:0.265598 41:0.098235 42:0.27531 43:0.192846 44:0.119581 45:0.210557 46:0.0544031 47:0.128706 48:0.128581 49:0.220947 50:0.136262 51:0.259681 52:0.284787 53:0.265477 54:0.238265 55:0.15038 56:0.0525532 57:0.167838 58:0.185447 59:0.189769 60:0.356308 61:0.214952 62:0.438065 63:0.338098 64:0.134513 65:0.912906 66:3.04435e-07 67:1.08861e-10 68:1.19926e-10 69:3.56774e-09 70:0.999999 71:0.244038 
1.255399765599288 1:0 2:0.24144 3:0.308434 4:0.452393 5:0.457156 6:0.219913 7:0.335982 8:0.240515 9:0.15546 10:0.0984612 11:0.176223 12:0.213811 13:0.1824 14:0.353137 15:0.201118 16:0.15881 17:0.203162 18:0.0248488 19:0.252879 20:0.158271 21:0.0571714 22:0.19453 23:0.42672 24:0.0648714 25:0.472973 26:0.0962597 27:0.242181 28:0.215828 29:0.2999 30:0.0923031 31:0.255708 32:0.326863 33:0.0407662 34:0.155649 35:0.217475 36:0.397195 37:0.197754 38:0.0683859 39:0.306907 40:0.214071 41:0.362506 42:0.260685 43:0.241253 44:0.0492436 45:0.294482 46:0.0584539 47:0.459615 48:0.142654 49:0.181525 50:0.0619287 51:0.13288 52:0.204194 53:0.0641847 54:0.0207068 55:0.109065 56:0.0573594 57:0.294298 58:0.0996815 59:0.428641 60:0.229446 61:0.428641 62:0.462816 63:0.306739 64:0.105724 65:0.913402 66:5.1456e-06 67:4.31807e-09 68:1.28444e-09 69:3.56774e-09 70:0.999999 71:0.244038 
2 1:0 2:0.116058 3:0.0634591 4:0.0662324 5:0.0460927 6:0.0656362 7:0.119837 8:0.117741 9:0.0722983 10:0.0474622 11:0.0366798 12:0.126874 13:0.0635438 14:0.148724 15:0.0333271 16:0.0289995 17:0.126019 18:0.0775237 19:0.215465 20:0.107553 21:0.167767 22:0.052745 23:0.0634486 24:0.113566 25:0.0582788 26:0.0914757 27:0.0769692 28:0.384823 29:0.286383 30:0.0446957 31:0.100194 32:0.129703 33:0.18796 34:0.127967 35:0.101972 36:0.14796 37:0.393895 38:0.090629 39:0.0559774 40:0.148848 41:0.106927 42:0.0727342 43:0.111291 44:0.129144 45:0.0587469 46:0.0394916 47:0.0812874 48:0.145476 49:0.0246202 50:0.0971165 51:0.0812032 52:0.0548791 53:0.0692172 54:0.141977 55:0.0458032 56:0.0331083 57:0.0586012 58:0.0882156 59:0.124711 60:0.133606 61:0.120355 62:0.129871 63:0.072356 64:0.406668 65:0.910773 66:1.32381e-10 67:3.68528e-16 68:4.34824e-17 69:3.56774e-09 70:0.999999 71:0.244038 
0.7737966846353964 1:0 2:0.0979573 3:0.0392594 4:0.0751377 5:0.0441014 6:0.0569445 7:0.0275356 8:0.0799391 9:0.0844515 10:0.0481962 11:0.154726 12:0.0317398 13:0.0343431 14:0.0145927 15:0.0881528 16:0.0327733 17:0.104971 18:0.0406888 19:0.101777 20:0.123565 21:0.0318072 22:0.0738192 23:0.0677893 24:0.100021 25:0.0198347 26:0.302912 27:0.086921 28:0.0590025 29:0.0930319 30:0.113668 31:0.176364 32:0.142818 33:0.240751 34:0.0829063 35:0.0435343 36:0.0526698 37:0.29583 38:0.166837 39:0.0953811 40:0.0557526 41:0.152106 42:0.0551422 43:0.0468903 44:0.0618533 45:0.0938395 46:0.0433428 47:0.0662594 48:0.107223 49:0.165529 50:0.0561581 51:0.0442544 52:0.0831172 53:0.0791997 54:0.0566309 55:0.140189 56:0.073337 57:0.00992513 58:0.081191 59:0.0933805 60:0.127219 61:0.0593245 62:0.0435491 63:0.0191823 64:0.37134 65:0.910771 66:9.57107e-11 67:1.04985e-16 68:2.00487e-17 69:3.56774e-09 70:0.999999 71:0.244038 
2 1:0 2:0.0963817 3:0.0789447 4:0.0430308 5:0.0564573 6:0.0119147 7:0.0993392 8:0.0772789 9:0.0989555 10:0.0801879 11:0.0403102 12:0.0861252 13:0.041045 14:0.0480951 15:0.0881211 16:0.0654969 17:0.0782105 18:0.114386 19:0.0292313 20:0.0930479 21:0.0824744 22:0.0454632 23:0.0588304 24:0.0627024 25:0.0706114 26:0.0773355 27:0.218682 28:0.0443123 29:0.150434 30:0.181573 31:0.149326 32:0.219461 33:0.0163336 34:0.0799776 35:0.297138 36:0.226401 37:0.367127 38:0.0920426 39:0.0626038 40:0.154094 41:0.0920506 42:0.0308201 43:0.085364 44:0.167148 45:0.0950699 46:0.113102 47:0.135847 48:0.0422805 49:0.0338283 50:0.0489745 51:0.0611029 52:0.0556565 53:0.0919392 54:0.0200912 55:0.141471 56:0.0198212 57:0.0702671 58:0.0587653 59:0.0628247 60:0.0525432 61:0.169537 62:0.152314 63:0.0883368 64:0.377148 65:0.910773 66:1.18417e-10 67:6.83519e-16 68:7.78417e-17 69:3.56774e-09 70:0.999999 71:0.244038 
2 1:0 2:0.264118 3:0.0869357 4:0.0589356 5:0.0345826 6:0.0813242 7:0.180895 8:0.149494 9:0.0348211 10:0.0413171 11:0.04508 12:0.0669997 13:0.0831675 14:0.105028 15:0.10035 16:0.079899 17:0.136938 18:0.169905 19:0.00637771 20:0.102837 21:0.221736 22:0.0714975 23:0.177642 24:0.0314941 25:0.0736719 26:0.0608807 27:0.293479 28:0.304474 29:0.0609439 30:0.209984 31:0.23887 32:0.170785 33:0.228759 34:0.218693 35:0.236502 36:0.283812 37:0.287983 38:0.0966668 39:0.221975 40:0.00305331 41:0.26059 42:0.0844422 43:0.182852 44:0.0768921 45:0.0587447 46:0.0644951 47:0.0283723 48:0.13568 49:0.105784 50:0.054377 51:0.0817888 52:0.0724043 53:0.0503713 54:0.0447534 55:0.187387 56:0.182199 57:0.0636605 58:0.146276 59:0.238285 60:0.0985938 61:0.0571857 62:0.214803 63:0.0435066 64:0.454058 65:0.910786 66:9.08083e-10 67:1.62746e-15 68:9.87129e-16 69:3.56774e-09 70:0.999999 71:0.244038 
2 1:0 2:0.264496 3:0.0694847 4:0.0557247 5:0.137041 6:0.0581878 7:0.122116 8:0.115549 9:0.124698 10:0.0695746 11:0.0895284 12:0.0891107 13:0.116959 14:0.0804009 15:0.149056 16:0.153615 17:0.0658616 18:0.0437519 19:0.0657765 20:0.0662428 21:0.0852735 22:0.100006 23:0.173373 24:0.0464192 25:0.0290253 26:0.0250387 27:0.166644 28:0.177078 29:0.320777 30:0.0713809 31:0.0737099 32:0.165778 33:0.187828 34:0.120548 35:0.129924 36:0.177017 37:0.0678695 38:0.0922365 39:0.15554 40:0.127476 41:0.189576 42:0.204563 43:0.164675 44:0.0830267 45:0.0632162 46:0.0385448 47:0.0580123 48:0.0896496 49:0.0760188 50:0.0726566 51:0.151963 52:0.12474 53:0.0282004 54:0.0636732 55:0.0849507 56:0.0836483 57:0.124079 58:0.120686 59:0.111242 60:0.10128 61:0.133163 62:0.19774 63:0.0424303 64:0.485818 65:0.910783 66:7.21441e-10 67:9.74136e-16 68:5.59059e-16 69:3.56774e-09 70:0.999999 71:0.244038 
2 1:0 2:0.0449604 3:0.0496477 4:0.0374573 5:0.0952763 6:0.0528633 7:0.0847284 8:0.0606011 9:0.124483 10:0.0687642 11:0.0281435 12:0.0901591 13:0.0547257 14:0.0180967 15:0.035039 16:0.044861 17:0.0519412 18:0.0694302 19:0.0712153 20:0.0974346 21:0.160984 22:0.0938544 23:0.111406 24:0.031546 25:0.106958 26:0.0924185 27:0.169077 28:0.0868496 29:0.146063 30:0.0366344 31:0.0995615 32:0.159567 33:0.308731 34:0.0875362 35:0.0995556 36:0.178046 37:0.0836417 38:0.179035 39:0.155627 40:0.0628463 41:0.222631 42:0.127729 43:0.125392 44:0.096434 45:0.124519 46:0.0505925 47:0.191451 48:0.102542 49:0.126144 50:0.0501726 51:0.048187 52:0.0240375 53:0.0618493 54:0.0439406 55:0.0841819 56:0.0398305 57:0.0109849 58:0.0505765 59:0.109797 60:0.100215 61:0.185959 62:0.120681 63:0.0981907 64:0.331038 65:0.91077 66:2.95883e-11 67:2.77836e-16 68:2.49927e-17 69:3.56774e-09 70:0.999999 71:0.244038 
1.716949698663505 1:0 2:0.272076 3:0.495832 4:0.446892 5:0.110471 6:0.250984 7:0.359083 8:0.453735 9:0.163948 10:0.272832 11:0.41679 12:0.0553417 13:0.0992368 14:0.415984 15:0.26905 16:0.290337 17:0.287525 18:0.155049 19:0.288875 20:0.169618 21:0.191913 22:0.0695728 23:0.25368 24:0.0579663 25:0.347273 26:0.367387 27:0.348265 28:0.383086 29:0.310105 30:0.087941 31:0.223536 32:0.224276 33:0.00803124 34:0.241869 35:0.135531 36:0.0567049 37:0.464251 38:0.081712 39:0.327266 40:0.184317 41:0.505531 42:0.227098 43:0.224226 44:0.1621 45:0.101536 46:0.24885 47:0.358889 48:0.0204834 49:0.265539 50:0.293313 51:0.189664 52:0.356036 53:0.0373893 54:0.0964539 55:0.398993 56:0.313807 57:0.132043 58:0.444559 59:0.384625 60:0.224476 61:0.0826647 62:0.449956 63:0.501445 64:0.12662 65:0.913943 66:2.33782e-06 67:2.57106e-10 68:5.23999e-10 69:3.56774e-09 70:0.999999 71:0.244038 
2 1:0 2:0.0897275 3:0.0665687 4:0.0569553 5:0.0904702 6:0.123667 7:0.116931 8:0.0273071 9:0.0305598 10:0.11948 11:0.101338 12:0.0765419 13:0.0463017 14:0.0509709 15:0.050851 16:0.05035 17:0.0888952 18:0.0163312 19:0.110594 20:0.100473 21:0.0819996 22:0.149327 23:0.139665 24:0.0507389 25:0.0754158 26:0.0282809 27:0.21814 28:0.127694 29:0.193946 30:0.201671 31:0.0413195 32:0.030176 33:0.073768 34:0.247543 35:0.082228 36:0.110274 37:0.0379482 38:0.209314 39:0.0869763 40:0.119044 41:0.094648 42:0.141448 43:0.0677394 44:0.0533649 45:0.0610381 46:0.0405814 47:0.0854698 48:0.107395 49:0.00814548 50:0.0627587 51:0.0691965 52:0.0965748 53:0.0537851 54:0.0374757 55:0.0396115 56:0.0452769 57:0.0711709 58:0.020586 59:0.0853425 60:0.102064 61:0.139433 62:0.138077 63:0.107439 64:0.351771 65:0.910773 66:1.01756e-10 67:4.48947e-16 68:7.19672e-17 69:3.56774e-09 70:0.999999 71:0.244038 
2 1:0 2:0.232853 3:0.0606035 4:0.0582493 5:0.0430787 6:0.0659669 7:0.103113 8:0.105833 9:0.0503301 10:0.173424 11:0.115134 12:0.166143 13:0.0633326 14:0.233404 15:0.137956 16:0.0694942 17:0.172047 18:0.0565628 19:0.0765906 20:0.215299 21:0.115542 22:0.0644676 23:0.052209 24:0.0341645 25:0.089537 26:0.260848 27:0.311153 28:0.190225 29:0.241206 30:0.204124 31:0.119227 32:0.261956 33:0.02125 34:0.13905 35:0.202339 36:0.198865 37:0.0563893 38:0.258572 39:0.11041 40:0.129722 41:0.164678 42:0.15218 43:0.107891 44:0.0778175 45:0.116168 46:0.091798 47:0.164324 48:0.170423 49:0.261106 50:0.161908 51:0.0595308 52:0.161392 53:0.0632556 54:0.0627199 55:0.11417 56:0.143283 57:0.104104 58:0.0870817 59:0.131694 60:0.188776 61:0.0686135 62:0.190043 63:0.0748745 64:0.484311 65:0.910779 66:5.11611e-10 67:4.26575e-16 68:1.04494e-16 69:3.56774e-09 70:0.999999 71:0.244038 
2 1:0 2:0.143478 3:0.0790341 4:0.0232583 5:0.0584643 6:0.104917 7:0.0517509 8:0.101349 9:0.0391896 10:0.0652807 11:0.0727328 12:0.139178 13:0.0307661 14:0.0999808 15:0.0726392 16:0.0284818 17:0.188136 18:0.0906464 19:0.141349 20:0.132523 21:0.0713608 22:0.0745128 23:0.119943 24:0.0120153 25:0.148935 26:0.0985859 27:0.295039 28:0.219146 29:0.43858 30:0.175705 31:0.113708 32:0.0495 33:0.14343 34:0.0500253 35:0.107563 36:0.0952618 37:0.287483 38:0.334452 39:0.0653239 40:0.185799 41:0.1166 42:0.128109 43:0.0831195 44:0.226849 45:0.279965 46:0.153477 47:0.0684577 48:0.0576244 49:0.0683423 50:0.0532639 51:0.130853 52:0.0675902 53:0.0681866 54:0.115812 55:0.0664054 56:0.180686 57:0.128424 58:0.122291 59:0.0824406 60:0.0968881 61:0.0403749 62:0.086575 63:0.0511867 64:0.428348 65:0.910773 66:1.64475e-10 67:4.843e-16 68:7.10645e-17 69:3.56774e-09 70:0.999999 71:0.244038 
2 1:0 2:0.280367 3:0.0681298 4:0.0159342 5:0.10168 6:0.12474 7:0.0380129 8:0.103109 9:0.12238 10:0.163758 11:0.0324815 12:0.105856 13:0.0952653 14:0.0692478 15:0.134428 16:0.169484 17:0.0184569 18:0.191507 19:0.107529 20:0.111674 21:0.19239 22:0.0726724 23:0.0616662 24:0.0863585 25:0.124611 26:0.124389 27:0.291874 28:0.115953 29:0.35104 30:0.312179 31:0.144786 32:0.431767 33:0.278838 34:0.475206 35:0.115714 36:0.0980136 37:0.263857 38:0.133476 39:0.0832977 40:0.198914 41:0.158873 42:0.0847815 43:0.190084 44:0.315561 45:0.0496189 46:0.0654413 47:0.183782 48:0.131968 49:0.151795 50:0.152268 51:0.0278755 52:0.137479 53:0.0502046 54:0.051016 55:0.0260431 56:0.197349 57:0.0490315 58:0.0426157 59:0.092879 60:0.116777 61:0.0790631 62:0.236916 63:0.103492 64:0.513377 65:0.910784 66:7.74867e-10 67:8.63342e-16 68:2.75261e-16 69:3.56774e-09 70:0.999999 71:0.244038 
2 1:0 2:0.0818333 3:0.0284409 4:0.0259883 5:0.054867 6:0.056397 7:0.0929008 8:0.13673 9:0.0452785 10:0.105933 11:0.128671 12:0.0605799 13:0.0687453 14:0.0732373 15:0.0908481 16:0.0340056 17:0.134956 18:0.0330102 19:0.0564735 20:0.106095 21:0.0713398 22:0.0498967 23:0.0949957 24:0.0647858 25:0.150239 26:0.298229 27:0.149004 28:0.156063 29:0.135113 30:0.12045 31:0.12102 32:0.0953974 33:0.167394 34:0.232372 35:0.356693 36:0.0365001 37:0.0831258 38:0.162335 39:0.0343326 40:0.248929 41:0.029529 42:0.0575615 43:0.187335 44:0.0737647 45:0.0631796 46:0.0241954 47:0.0376606 48:0.126853 49:0.0644483 50:0.0611825 51:0.135602 52:0.144256 53:0.0584893 54:0.0935116 55:0.0542463 56:0.0922049 57:0.110582 58:0.0868104 59:0.0903182 60:0.0629744 61:0.180162 62:0.139189 63:0.10506 64:0.387066 65:0.910771 66:7.95562e-11 67:2.54347e-16 68:1.53151e-17 69:3.56774e-09 70:0.999999 71:0.244038 
0.2034330785304669 1:0 2:0.0555132 3:0.0291714 4:0.0628856 5:0.0503494 6:0.0480904 7:0.0991118 8:0.0409394 9:0.125635 10:0.0675434 11:0.0971899 12:0.0216954 13:0.106208 14:0.0513507 15:0.0609395 16:0.0688677 17:0.0633227 18:0.126885 19:0.0840667 20:0.059376 21:0.057237 22:0.110346 23:0.114726 24:0.112746 25:0.00581277 26:0.147602 27:0.0876556 28:0.169429 29:0.173399 30:0.0904891 31:0.0783742 32:0.0950968 33:0.211041 34:0.15414 35:0.128787 36:0.0895347 37:0.0989705 38:0.0156862 39:0.220441 40:0.0847564 41:0.196241 42:0.0497425 43:0.0457492 44:0.0292658 45:0.0957031 46:0.131755 47:0.085375 48:0.0294825 49:0.153611 50:0.0370888 51:0.0953401 52:0.0402763 53:0.0932733 54:0.0228286 55:0.0769338 56:0.0320302 57:0.081345 58:0.0373861 59:0.0210504 60:0.100979 61:0.0868211 62:0.0421823 63:0.0104959 64:0.335895 65:0.91077 66:4.04494e-11 67:1.03955e-16 68:7.34392e-18 69:3.56774e-09 70:0.999999 71:0.244038 
2 1:0 2:0.450452 3:0.2596 4:0.0975723 5:0.217696 6:0.0189053 7:0.112062 8:0.0985304 9:0.195021 10:0.12789 11:0.158753 12:0.12583 13:0.082708 14:0.154535 15:0.163195 16:0.0574707 17:0.228099 18:0.178909 19:0.181023 20:0.165032 21:0.110479 22:0.11384 23:0.247375 24:0.0839857 25:0.239365 26:0.104114 27:0.389607 28:0.265294 29:0.492483 30:0.429076 31:0.285497 32:0.416716 33:0.0794959 34:0.534904 35:0.287307 36:0.248288 37:0.164969 38:0.346026 39:0.242596 40:0.112525 41:0.135107 42:0.124336 43:0.161747 44:0.138796 45:0.0744758 46:0.108043 47:0.134357 48:0.172148 49:0.0542951 50:0.13813 51:0.113148 52:0.07927 53:0.150806 54:0.154856 55:0.160518 56:0.0757943 57:0.165594 58:0.0767741 59:0.111037 60:0.0258512 61:0.206449 62:0.103848 63:0.257197 64:0.275024 65:0.914588 66:8.58771e-06 67:2.95243e-09 68:6.52936e-10 69:3.56774e-09 70:0.999999 71:0.244038 
2 1:0 2:0.353722 3:0.0466865 4:0.111317 5:0.197155 6:0.152445 7:0.0838677 8:0.0255246 9:0.159964 10:0.0505979 11:0.120199 12:0.121186 13:0.040091 14:0.122823 15:0.106983 16:0.137356 17:0.0751391 18:0.0787598 19:0.178666 20:0.00485385 21:0.0850087 22:0.0772356 23:0.136215 24:0.0291282 25:0.0448914 26:0.394646 27:0.215595 28:0.203906 29:0.257196 30:0.222998 31:0.187173 32:0.277033 33:0.144185 34:0.121189 35:0.311377 36:0.27465 37:0.303082 38:0.167769 39:0.162292 40:0.350592 41:0.238962 42:0.33029 43:0.271973 44:0.06411 45:0.252984 46:0.0932843 47:0.158107 48:0.0567578 49:0.0307033 50:0.188632 51:0.00339531 52:0.0539724 53:0.154751 54:0.0777822 55:0.162692 56:0.058065 57:0.135654 58:0.156412 59:0.191981 60:0.18229 61:0.0988049 62:0.296113 63:0.0445927 64:0.5587 65:0.910793 66:1.37278e-09 67:4.58992e-16 68:2.64601e-16 69:3.56774e-09 70:0.999999 71:0.244038 
2 1:0 2:0.0165515 3:0.04051 4:0.0423147 5:0.0902341 6:0.132577 7:0.0163038 8:0.0741715 9:0.0755823 10:0.0686253 11:0.0829754 12:0.064234 13:0.0273077 14:0.0476582 15:0.084304 16:0.082892 17:0.0883714 18:0.0931028 19:0.100921 20:0.0954516 21:0.0432371 22:0.0343996 23:0.0883761 24:0.0527172 25:0.11007 26:0.0342268 27:0.331644 28:0.172904 29:0.050955 30:0.148912 31:0.14213 32:0.19637 33:0.227187 34:0.0969844 35:0.17193 36:0.0789109 37:0.0373298 38:0.0471709 39:0.10628 40:0.0752777 41:0.156563 42:0.0337973 43:0.149033 44:0.0162653 45:0.0588111 46:0.101576 47:0.069794 48:0.0918672 49:0.130552 50:0.0838127 51:0.0215393 52:0.0166758 53:0.0847182 54:0.0755345 55:0.127594 56:0.0361446 57:0.0262049 58:0.111475 59:0.121836 60:0.0987404 61:0.059784 62:0.0246445 63:0.0349491 64:0.290195 65:0.910769 66:7.00734e-12 67:9.61123e-17 68:4.96832e-18 69:3.56774e-09 70:0.999999 71:0.244038 
1.868579322799636 1:0 2:0.129801 3:0.0638017 4:0.0260136 5:0.0176802 6:0.138697 7:0.0525375 8:0.100361 9:0.0984836 10:0.058718 11:0.0910807 12:0.0584331 13:0.0549926 14:0.0453189 15:0.0316048 16:0.0809082 17:0.0813348 18:0.131379 19:0.0837269 20:0.11158 21:0.227695 22:0.119756 23:0.101215 24:0.0505231 25:0.161318 26:0.0455499 27:0.17495 28:0.095803 29:0.213205 30:0.243891 31:0.107835 32:0.158619 33:0.135437 34:0.0414368 35:0.193971 36:0.262031 37:0.229138 38:0.08045 39:0.0918028 40:0.121411 41:0.0277482 42:0.102747 43:0.138936 44:0.135786 45:0.0237028 46:0.0897152 47:0.140193 48:0.0874402 49:0.0861595 50:0.0411204 51:0.0112902 52:0.020013 53:0.0742681 54:0.128543 55:0.0991608 56:0.0827494 57:0.126254 58:0.119391 59:0.0423026 60:0.0585369 61:0.068904 62:0.1065 63:0.0281317 64:0.414279 65:0.910773 66:1.77543e-10 67:3.27627e-16 68:2.9129e-17 69:3.56774e-09 70:0.999999 71:0.244038 
2 1:0 2:0.101446 3:0.0798557 4:0.035171 5:0.0472839 6:0.0484729 7:0.0869618 8:0.0062738 9:0.0548202 10:0.0704253 11:0.153323 12:0.138076 13:0.0564984 14:0.0950997 15:0.131991 16:0.0628888 17:0.0623195 18:0.101195 19:0.0211154 20:0.0332934 21:0.16003 22:0.0897092 23:0.11465 24:0.125978 25:0.0166424 26:0.0557755 27:0.171873 28:0.224697 29:0.0984269 30:0.120758 31:0.0402916 32:0.23345 33:0.154959 34:0.235024 35:0.186485 36:0.0796472 37:0.297514 38:0.0421805 39:0.0460109 40:0.0755034 41:0.174024 42:0.153103 43:0.0813177 44:0.192225 45:0.0780607 46:0.0947923 47:0.136448 48:0.0167248 49:0.0921345 50:0.0316341 51:0.0246798 52:0.168455 53:0.121527 54:0.0770907 55:0.00249596 56:0.0102717 57:0.0867836 58:0.0441442 59:0.173494 60:0.093489 61:0.161107 62:0.102535 63:0.0716946 64:0.38356 65:0.910772 66:1.11113e-10 67:6.15328e-16 68:5.20939e-17 69:3.56774e-09 70:0.999999 71:0.244038 
0.1734143333973156 1:0 2:0.262013 3:0.355121 4:0.38633 5:0.0370079 6:0.342167 7:0.0877317 8:0.19937 9:0.0280788 10:0.0404947 11:0.0173171 12:0.133862 13:0.0818119 14:0.131448 15:0.0728757 16:0.043406 17:0.0977369 18:0.194199 19:0.0961472 20:0.139306 21:0.164189 22:0.109706 23:0.267394 24:0.0754189 25:0.157242 26:0.269931 27:0.0338821 28:0.155935 29:0.12121 30:0.145379 31:0.182618 32:0.329622 33:0.278941 34:0.273187 35:0.170344 36:0.029694 37:0.0391595 38:0.159944 39:0.0533699 40:0.161642 41:0.294969 42:0.0353973 43:0.217369 44:0.114015 45:0.270884 46:0.243423 47:0.0322384 48:0.246747 49:0.0285734 50:0.0625435 51:0.0632866 52:0.115317 53:0.150268 54:0.14793 55:0.0321373 56:0.0350316 57:0.022017 58:0.184379 59:0.074313 60:0.318316 61:0.0461995 62:0.370891 63:0.360962 64:0.123683 65:0.914395 66:1.84756e-06 67:4.6484e-10 68:2.1168e-09 69:3.56774e-09 70:0.999999 71:0.244038 
2 1:0 2:0.0310877 3:0.034873 4:0.00970648 5:0.119851 6:0.100275 7:0.0469964 8:0.109591 9:0.0945525 10:0.0223134 11:0.0852664 12:0.0374722 13:0.0245504 14:0.0498178 15:0.0742626 16:0.0618833 17:0.0697746 18:0.0918694 19:0.0311986 20:0.0777086 21:0.107941 22:0.0436889 23:0.0972364 24:0.0430928 25:0.106044 26:0.060539 27:0.243996 28:0.0981025 29:0.0407383 30:0.029701 31:0.0758001 32:0.140547 33:0.189065 34:0.15098 35:0.186517 36:0.169911 37:0.224624 38:0.0171392 39:0.103488 40:0.0611187 41:0.0742868 42:0.108305 43:0.0374294 44:0.0619608 45:0.0188492 46:0.0433732 47:0.0758245 48:0.0650818 49:0.019589 50:0.0389437 51:0.0570569 52:0.0982381 53:0.0464869 54:0.0886018 55:0.0493477 56:0.186744 57:0.0885592 58:0.116377 59:0.114385 60:0.0323166 61:0.034338 62:0.024386 63:0.0396423 64:0.316247 65:0.910769 66:8.74716e-12 67:4.97833e-17 68:9.74894e-19 69:3.56774e-09 70:0.999999 71:0.244038 
0.1503251295876411 1:0 2:0.0768819 3:0.0342861 4:0.0529174 5:0.0408216 6:0.0582532 7:0.0406137 8:0.0556921 9:0.0642966 10:0.128974 11:0.020648 12:0.0539442 13:0.0851004 14:0.105953 15:0.0544944 16:0.0951135 17:0.0790939 18:0.0724237 19:0.0668385 20:0.0720625 21:0.188491 22:0.0524814 23:0.203507 24:0.0788167 25:0.179397 26:0.102309 27:0.0930924 28:0.314371 29:0.185967 30:0.353485 31:0.312688 32:0.441416 33:0.52539 34:0.167091 35:0.134957 36:0.334781 37:0.0820944 38:0.165909 39:0.189473 40:0.0659952 41:0.143745 42:0.127609 43:0.18864 44:0.293411 45:0.111447 46:0.154471 47:0.0608214 48:0.192621 49:0.0845758 50:0.0137251 51:0.0536821 52:0.130445 53:0.0394086 54:0.130835 55:0.0322552 56:0.0596504 57:0.0441576 58:0.0516259 59:0.0496117 60:0.0802879 61:0.0656715 62:0.0738587 63:0.0270866 64:0.389601 65:0.91077 66:6.79304e-11 67:7.06996e-17 68:2.31098e-18 69:3.56774e-09 70:0.999999 71:0.244038 
1.787871641211861 1:0 2:0.175082 3:0.0512928 4:0.0349293 5:0.102629 6:0.0573738 7:0.127742 8:0.0369344 9:0.0472389 10:0.0519353 11:0.139599 12:0.130097 13:0.0548451 14:0.125482 15:0.0521818 16:0.0166103 17:0.0568477 18:0.139034 19:0.032389 20:0.0683677 21:0.0346127 22:0.0151001 23:0.206715 24:0.161044 25:0.0695087 26:0.428674 27:0.441866 28:0.0917349 29:0.202369 30:0.121593 31:0.143313 32:0.139732 33:0.206311 34:0.0229972 35:0.265183 36:0.326739 37:0.249219 38:0.183745 39:0.172835 40:0.308872 41:0.0526031 42:0.110015 43:0.140992 44:0.326351 45:0.154774 46:0.0551665 47:0.1676 48:0.210542 49:0.0276887 50:0.053116 51:0.105176 52:0.0607499 53:0.12004 54:0.000932398 55:0.0837763 56:0.0885059 57:0.0383106 58:0.0143317 59:0.178356 60:0.0952101 61:0.0431959 62:0.11134 63:0.0324347 64:0.455079 65:0.910774 66:2.70162e-10 67:1.81274e-16 68:1.86065e-17 69:3.56774e-09 70:0.999999 71:0.244038 
0.5639703164706723 1:0 2:0.0838275 3:0.0543463 4:0.0752156 5:0.116973 6:0.101203 7:0.10179 8:0.0480246 9:0.0687871 10:0.0768976 11:0.0340919 12:0.0582725 13:0.0707938 14:0.109015 15:0.013191 16:0.0820692 17:0.118072 18:0.0424414 19:0.141649 20:0.0585248 21:0.141647 22:0.126632 23:0.126887 24:0.0826565 25:0.090326 26:0.0708498 27:0.213895 28:0.138152 29:0.183483 30:0.146828 31:0.195149 32:0.153033 33:0.0279939 34:0.0734507 35:0.22376 36:0.0287522 37:0.0632365 38:0.0822045 39:0.0959355 40:0.0681309 41:0.220015 42:0.224941 43:0.105099 44:0.0480316 45:0.109159 46:0.140596 47:0.111148 48:0.103156 49:0.0338563 50:0.0525624 51:0.0200696 52:0.0447265 53:0.0130256 54:0.0729581 55:0.0261772 56:0.0161533 57:0.0966575 58:0.0841146 59:0.15134 60:0.0902083 61:0.101377 62:0.0414812 63:0.0284004 64:0.368222 65:0.910771 66:6.91004e-11 67:2.29058e-16 68:1.02303e-17 69:3.56774e-09 70:0.999999 71:0.244038 
1.116963861509796 1:0 2:0.234791 3:0.332893 4:0.439676 5:0.0917049 6:0.251307 7:0.340273 8:0.0878315 9:0.156362 10:0.147321 11:0.158298 12:0.0879641 13:0.238715 14:0.0445893 15:0.0668145 16:0.0621489 17:0.259154 18:0.221738 19:0.12692 20:0.0419661 21:0.22482 22:0.113932 23:0.100297 24:0.154295 25:0.219617 26:0.0789962 27:0.232171 28:0.418087 29:0.174729 30:0.208705 31:0.133317 32:0.0732751 33:0.427938 34:0.25673 35:0.0544468 36:0.150588 37:0.257019 38:0.383015 39:0.186613 40:0.160364 41:0.337717 42:0.167493 43:0.248793 44:0.13047 45:0.261519 46:0.0666376 47:0.176551 48:0.177418 49:0.217242 50:0.0576914 51:0.129946 52:0.0902835 53:0.231759 54:0.0624087 55:0.125087 56:0.228357 57:0.0966655 58:0.136059 59:0.296881 60:0.27178 61:0.0271096 62:0.434127 63:0.34088 64:0.102191 65:0.912927 66:3.76041e-07 67:4.0546e-10 68:3.20076e-10 69:3.56774e-09 70:0.999999 71:0.244038 
1.60822042178967 1:0 2:0.0891096 3:0.0793435 4:0.081111 5:0.0999843 6:0.0874885 7:0.0814876 8:0.0959358 9:0.0841481 10:0.0549028 11:0.0390623 12:0.0449617 13:0.0922581 14:0.0288941 15:0.0694046 16:0.0473761 17:0.151458 18:0.134941 19:0.0686445 20:0.0784501 21:0.124971 22:0.0395395 23:0.183027 24:0.0525583 25:0.164339 26:0.149261 27:0.125099 28:0.238257 29:0.153437 30:0.241116 31:0.15366 32:0.266556 33:0.51749 34:0.171758 35:0.126262 36:0.189632 37:0.192442 38:0.256459 39:0.121441 40:0.149401 41:0.213371 42:0.0461691 43:0.10122 44:0.062568 45:0.0888199 46:0.118387 47:0.0789049 48:0.132487 49:0.152882 50:0.0724209 51:0.0926238 52:0.0272844 53:0.0391225 54:0.0478862 55:0.1719 56:0.0926668 57:0.0172551 58:0.103391 59:0.129562 60:0.0398683 61:0.102186 62:0.105822 63:0.0715913 64:0.383531 65:0.910772 66:8.75649e-11 67:4.18182e-16 68:5.29445e-17 69:3.56774e-09 70:0.999999 71:0.244038 
1.812908556471649 1:0 2:0.359516 3:0.29797 4:0.134021 5:0.274852 6:0.108678 7:0.0879045 8:0.0645853 9:0.124777 10:0.292708 11:0.1436 12:0.181851 13:0.0465752 14:0.0325317 15:0.119643 16:0.0257815 17:0.114979 18:0.10464 19:0.0677984 20:0.0963135 21:0.289623 22:0.119348 23:0.125136 24:0.17038 25:0.123301 26:0.0797359 27:0.0929555 28:0.363353 29:0.278518 30:0.0289686 31:0.25434 32:0.0858151 33:0.101279 34:0.217239 35:0.375906 36:0.0722736 37:0.268865 38:0.202983 39:0.127625 40:0.11231 41:0.131499 42:0.114223 43:0.122561 44:0.312567 45:0.241679 46:0.0366733 47:0.0681164 48:0.108832 49:0.0759311 50:0.0286884 51:0.172712 52:0.0610047 53:0.0312445 54:0.186595 55:0.139236 56:0.294458 57:0.145624 58:0.0717085 59:0.10719 60:0.0993212 61:0.280937 62:0.121986 63:0.299111 64:0.201451 65:0.913445 66:1.62954e-06 67:5.33363e-10 68:1.77367e-10 69:3.56774e-09 70:0.999999 71:0.244038 
2 1:0 2:0.109886 3:0.0866291 4:0.0282395 5:0.0888828 6:0.109767 7:0.0705864 8:0.0861041 9:0.0688096 10:0.136741 11:0.0609903 12:0.103014 13:0.114592 14:0.0485093 15:0.0336063 16:0.0386008 17:0.104842 18:0.0246502 19:0.0775306 20:0.0757035 21:0.0448388 22:0.0686767 23:0.0926591 24:0.143816 25:0.128017 26:0.207352 27:0.111704 28:0.254276 29:0.338269 30:0.0782299 31:0.130471 32:0.277111 33:0.130312 34:0.0885369 35:0.126433 36:0.239678 37:0.299752 38:0.112107 39:0.123618 40:0.0457786 41:0.153551 42:0.0340188 43:0.0213694 44:0.180412 45:0.0672799 46:0.150238 47:0.125404 48:0.021617 49:0.143436 50:0.0746607 51:0.0781019 52:0.0587857 53:0.127603 54:0.0788244 55:0.0705752 56:0.0943222 57:0.0856054 58:0.148551 59:0.100794 60:0.109043 61:0.132391 62:0.0710929 63:0.0307667 64:0.367407 65:0.910773 66:1.45236e-10 67:7.71694e-16 68:5.33171e-17 69:3.56774e-09 70:0.999999 71:0.244038 
2 1:0 2:0.140545 3:0.0669037 4:0.0308899 5:0.145792 6:0.160386 7:0.153438 8:0.0690877 9:0.0516149 10:0.0698605 11:0.00670902 12:0.126204 13:0.0766207 14:0.105537 15:0.0169947 16:0.0359847 17:0.200445 18:0.0867301 19:0.122036 20:0.095746 21:0.0397634 22:0.0712487 23:0.148798 24:0.0627107 25:0.0294853 26:0.133192 27:0.261299 28:0.117044 29:0.170081 30:0.0416082 31:0.0702014 32:0.178322 33:0.449326 34:0.0875513 35:0.136361 36:0.0500323 37:0.111146 38:0.221814 39:0.210266 40:0.00779469 41:0.0453218 42:0.112965 43:0.0458438 44:0.0886802 45:0.10658 46:0.0899511 47:0.0419291 48:0.168234 49:0.0821254 50:0.143409 51:0.0540179 52:0.0959508 53:0.102103 54:0.101441 55:0.0497059 56:0.0995712 57:0.0619683 58:0.0980414 59:0.239614 60:0.0967343 61:0.0243844 62:0.10676 63:0.0542594 64:0.391584 65:0.910775 66:2.25888e-10 67:4.33127e-16 68:7.18108e-17 69:3.56774e-09 70:0.999999 71:0.244038 
2 1:0 2:0.0674598 3:0.0436614 4:0.0395958 5:0.00967959 6:0.113848 7:0.0220992 8:0.191562 9:0.0437885 10:0.115714 11:0.0524287 12:0.0749901 13:0.0685419 14:0.0688725 15:0.0538836 16:0.073558 17:0.0430715 18:0.0849468 19:0.152676 20:0.116399 21:0.240291 22:0.0406971 23:0.113833 24:0.091439 25:0.0743942 26:0.391613 27:0.0999555 28:0.143532 29:0.0460354 30:0.142018 31:0.254849 32:0.246158 33:0.148166 34:0.172612 35:0.112324 36:0.186013 37:0.294023 38:0.00760368 39:0.082042 40:0.0397864 41:0.202585 42:0.0867134 43:0.0573159 44:0.08479 45:0.0840396 46:0.113573 47:0.0438506 48:0.116025 49:0.102877 50:0.0239488 51:0.109316 52:0.135392 53:0.0312661 54:0.0427865 55:0.0558223 56:0.261959 57:0.102547 58:0.122077 59:0.0900461 60:0.108245 61:0.049035 62:0.0426713 63:0.0103306 64:0.375262 65:0.91077 66:4.26258e-11 67:8.4425e-17 68:1.7683e-18 69:3.56774e-09 70:0.999999 71:0.244038 
2 1:0 2:0.044271 3:0.0424407 4:0.054882 5:0.163794 6:0.14767 7:0.0375321 8:0.0668253 9:0.0778098 10:0.0763717 11:0.106883 12:0.041266 13:0.0331996 14:0.13644 15:0.0519174 16:0.0637967 17:0.156947 18:0.102874 19:0.0225176 20:0.0907418 21:0.0660232 22:0.0742742 23:0.239787 24:0.0313162 25:0.125157 26:0.138363 27:0.0586092 28:0.260608 29:0.30705 30:0.369322 31:0.0771666 32:0.210873 33:0.13508 34:0.116121 35:0.070463 36:0.0504085 37:0.156789 38:0.210738 39:0.154426 40:0.0768995 41:0.100605 42:0.0794366 43:0.0873057 44:0.177208 45:0.191411 46:0.12828 47:0.06746 48:0.146959 49:0.0575177 50:0.0190136 51:0.0564049 52:0.0787161 53:0.0312612 54:0.0706081 55:0.12152 56:0.17141 57:0.0644764 58:0.0513321 59:0.13034 60:0.103197 61:0.0621025 62:0.0618707 63:0.0435411 64:0.300899 65:0.910771 66:6.64314e-11 67:3.73232e-17 68:4.69734e-18 69:3.56774e-09 70:0.999999 71:0.244038 
2 1:0 2:0.0969749 3:0.019907 4:0.112145 5:0.127916 6:0.112812 7:0.085274 8:0.17639 9:0.0731964 10:0.124077 11:0.111284 12:0.103048 13:0.0703175 14:0.153751 15:0.0220472 16:0.0775117 17:0.0546798 18:0.146999 19:0.0855058 20:0.0636936 21:0.267465 22:0.103413 23:0.0286888 24:0.0380002 25:0.052734 26:0.130107 27:0.315665 28:0.243972 29:0.0896866 30:0.0879033 31:0.181044 32:0.252686 33:0.236519 34:0.0673032 35:0.267932 36:0.200777 37:0.0286258 38:0.165781 39:0.187569 40:0.144983 41:0.169534 42:0.190089 43:0.0648233 44:0.121803 45:0.132794 46:0.0426898 47:0.280921 48:0.0946836 49:0.0596341 50:0.0815902 51:0.112041 52:0.111349 53:0.0308839 54:0.142814 55:0.141554 56:0.180337 57:0.0828239 58:0.0359487 59:0.0905717 60:0.1514 61:0.116922 62:0.102308 63:0.0728886 64:0.365591 65:0.910773 66:1.27745e-10 67:3.5065e-16 68:3.20264e-17 69:3.56774e-09 70:0.999999 71:0.244038 
0.6745885777393775 1:0 2:0.232217 3:0.437044 4:0.316408 5:0.0699657 6:0.174931 7:0.322847 8:0.297777 9:0.0390251 10:0.0869376 11:0.103227 12:0.241594 13:0.067515 14:0.25538 15:0.0368192 16:0.118127 17:0.132698 18:0.279539 19:0.0702192 20:0.169944 21:0.0998355 22:0.211299 23:0.0327365 24:0.155568 25:0.177361 26:0.190097 27:0.283466 28:0.180066 29:0.30496 30:0.101387 31:0.178747 32:0.185591 33:0.259014 34:0.179295 35:0.287428 36:0.150111 37:0.258132 38:0.233934 39:0.14512 40:0.0659799 41:0.0258467 42:0.346956 43:0.167627 44:0.297829 45:0.113933 46:0.104883 47:0.0681404 48:0.185193 49:0.0595982 50:0.107453 51:0.0260275 52:0.233737 53:0.0937878 54:0.23498 55:0.0656873 56:0.134552 57:0.0724142 58:0.265728 59:0.341312 60:0.153973 61:0.0600248 62:0.304314 63:0.444818 64:0.0994903 65:0.912418 66:5.3887e-08 67:2.57738e-11 68:1.32463e-11 69:3.56774e-09 70:0.999999 71:0.244038 
1.241863871005247 1:0 2:0.126456 3:0.0161671 4:0.0343845 5:0.0813022 6:0.0864506 7:0.0193993 8:0.167883 9:0.0534007 10:0.0104985 11:0.0437334 12:0.0561078 13:0.036021 14:0.0882438 15:0.100289 16:0.0231672 17:0.237923 18:0.0450174 19:0.193892 20:0.0922866 21:0.126071 22:0.219268 23:0.187565 24:0.153248 25:0.14289 26:0.430889 27:0.188428 28:0.294375 29:0.271867 30:0.209867 31:0.262179 32:0.213804 33:0.45066 34:0.113563 35:0.243657 36:0.0839975 37:0.384893 38:0.0514137 39:0.179426 40:0.13292 41:0.136065 42:0.129249 43:0.112004 44:0.0731719 45:0.0906851 46:0.150613 47:0.156683 48:0.188798 49:0.120902 50:0.076609 51:0.0559419 52:0.0582766 53:0.0901542 54:0.0732907 55:0.089177 56:0.0951924 57:0.0630384 58:0.163661 59:0.13262 60:0.0608304 61:0.0143019 62:0.115717 63:0.0195681 64:0.426322 65:0.910772 66:1.68202e-10 67:2.61744e-17 68:2.52359e-18 69:3.56774e-09 70:0.999999 71:0.244038 
1.516947559903579 1:0 2:0.0374651 3:0.0258135 4:0.0348525 5:0.0472906 6:0.146464 7:0.137639 8:0.1013 9:0.0527166 10:0.116633 11:0.0328712 12:0.0800599 13:0.0396191 14:0.0422888 15:0.053791 16:0.0145461 17:0.19909 18:0.0582614 19:0.176832 20:0.176531 21:0.140037 22:0.140337 23:0.0510791 24:0.00269494 25:0.177146 26:0.0758582 27:0.288935 28:0.0966857 29:0.139649 30:0.117205 31:0.146691 32:0.151959 33:0.0302169 34:0.199228 35:0.184272 36:0.198161 37:0.224513 38:0.156028 39:0.268258 40:0.0764834 41:0.22245 42:0.14687 43:0.121985 44:0.216596 45:0.0905633 46:0.1506 47:0.113975 48:0.034154 49:0.161262 50:0.1137 51:0.0520945 52:0.0660263 53:0.113788 54:0.0830536 55:0.0932165 56:0.10192 57:0.164313 58:0.0873911 59:0.164351 60:0.0899309 61:0.0886552 62:0.0500146 63:0.0315431 64:0.315505 65:0.910769 66:1.5701e-11 67:6.1542e-17 68:1.62227e-18 69:3.56774e-09 70:0.999999 71:0.244038 
2 1:0 2:0.117752 3:0.0649512 4:0.0720527 5:0.099098 6:0.0693392 7:0.0348867 8:0.0996194 9:0.0616608 10:0.0891746 11:0.0114492 12:0.0835678 13:0.0914606 14:0.0509016 15:0.0821854 16:0.0543187 17:0.0949242 18:0.246334 19:0.202473 20:0.0354386 21:0.283108 22:0.0301355 23:0.05039 24:0.0624642 25:0.0359944 26:0.106048 27:0.134023 28:0.24921 29:0.179943 30:0.0783085 31:0.0472224 32:0.196709 33:0.112317 34:0.123126 35:0.0602004 36:0.225841 37:0.283197 38:0.220876 39:0.0429272 40:0.0929278 41:0.228938 42:0.239302 43:0.143379 44:0.0419326 45:0.219145 46:0.158301 47:0.101129 48:0.203485 49:0.168098 50:0.0560885 51:0.185461 52:0.0339767 53:0.0263461 54:0.0542436 55:0.0359114 56:0.11934 57:0.0620903 58:0.113344 59:0.183275 60:0.103417 61:0.0635769 62:0.113519 63:0.0199271 64:0.395707 65:0.910773 66:1.61047e-10 67:3.73452e-16 68:4.83879e-17 69:3.56774e-09 70:0.999999 71:0.244038 
0.2019616496534649 1:0 2:0.0868094 3:0.0289898 4:0.0523039 5:0.0482289 6:0.0612396 7:0.0540374 8:0.0686615 9:0.0586595 10:0.00912742 11:0.023626 12:0.196268 13:0.0592468 14:0.0174742 15:0.0627036 16:0.0319225 17:0.0846627 18:0.0981797 19:0.0276383 20:0.0386256 21:0.245848 22:0.0855406 23:0.0331939 24:0.0820748 25:0.341605 26:0.404544 27:0.361357 28:0.124889 29:0.185885 30:0.403331 31:0.358133 32:0.232215 33:0.605424 34:0.379417 35:0.549502 36:0.143214 37:0.345576 38:0.454722 39:0.340112 40:0.0881167 41:0.128633 42:0.219404 43:0.212348 44:0.262873 45:0.0360424 46:0.298157 47:0.0990802 48:0.0549186 49:0.208291 50:0.0594801 51:0.0895853 52:0.0637131 53:0.0160337 54:0.0427031 55:0.0394235 56:0.0855101 57:0.010184 58:0.0321843 59:0.0789678 60:0.0876995 61:0.0504736 62:0.100308 63:0.0123609 64:0.393153 65:0.910771 66:9.35651e-11 67:5.20435e-17 68:4.44958e-18 69:3.56774e-09 70:0.999999 71:0.244038 
1.575353674642625 1:0 2:0.0367798 3:0.0639056 4:0.0549974 5:0.0986149 6:0.11355 7:0.139841 8:0.0831334 9:0.0228027 10:0.196708 11:0.0683526 12:0.0496274 13:0.0686538 14:0.0463973 15:0.0698094 16:0.0708604 17:0.062459 18:0.0249891 19:0.131894 20:0.0966999 21:0.04205 22:0.00253651 23:0.187919 24:0.0209117 25:0.0931915 26:0.0738291 27:0.0397926 28:0.243582 29:0.319174 30:0.27546 31:0.14733 32:0.277134 33:0.104692 34:0.0432886 35:0.0389562 36:0.307541 37:0.13025 38:0.180164 39:0.0954448 40:0.168718 41:0.0165911 42:0.0763243 43:0.102735 44:0.0311513 45:0.078927 46:0.0739786 47:0.091934 48:0.0976823 49:0.0887192 50:0.0689968 51:0.0647106 52:0.051602 53:0.0274293 54:0.110475 55:0.0298012 56:0.171519 57:0.0728265 58:0.0749417 59:0.0665469 60:0.0611247 61:0.0848958 62:0.0175356 63:0.0250739 64:0.311715 65:0.910769 66:4.97589e-12 67:1.78068e-16 68:5.56743e-18 69:3.56774e-09 70:0.999999 71:0.244038 
0.3935095667239354 1:0 2:0.251094 3:0.335422 4:0.411184 5:0.011968 6:0.265626 7:0.246964 8:0.0490826 9:0.044717 10:0.116633 11:0.199496 12:0.110918 13:0.183013 14:0.108522 15:0.152139 16:0.0687978 17:0.348342 18:0.0239516 19:0.0924994 20:0.0776412 21:0.308076 22:0.117028 23:0.0820257 24:0.0716333 25:0.162817 26:0.209813 27:0.151285 28:0.289706 29:0.292751 30:0.277236 31:0.236834 32:0.137777 33:0.241724 34:0.216056 35:0.151369 36:0.455936 37:0.134886 38:0.218276 39:0.0348371 40:0.124325 41:0.261695 42:0.0650454 43:0.0237929 44:0.0992404 45:0.322525 46:0.0491209 47:0.0594981 48:0.12161 49:0.213476 50:0.172221 51:0.125617 52:0.159074 53:0.135398 54:0.15917 55:0.0987839 56:0.151823 57:0.053321 58:0.0909187 59:0.206409 60:0.269652 61:0.0613329 62:0.40024 63:0.342777 64:0.115784 65:0.91367 66:5.56527e-07 67:1.92592e-10 68:8.87107e-12 69:3.56774e-09 70:0.999999 71:0.244038 
1.182701022902424 1:0 2:0.267788 3:0.0432922 4:0.075502 5:0.142354 6:0.0748015 7:0.079615 8:0.0856992 9:0.0875702 10:0.185576 11:0.116065 12:0.232607 13:0.101758 14:0.0681779 15:0.129039 16:0.0912746 17:0.140207 18:0.0421348 19:0.0614929 20:0.207807 21:0.13836 22:0.198106 23:0.216844 24:0.162908 25:0.204298 26:0.0585948 27:0.233935 28:0.308961 29:0.141981 30:0.180959 31:0.154901 32:0.194605 33:0.144188 34:0.292424 35:0.203221 36:0.284685 37:0.420269 38:0.0776261 39:0.0705591 40:0.16472 41:0.0975449 42:0.157151 43:0.256013 44:0.164449 45:0.159591 46:0.24164 47:0.288708 48:0.058465 49:0.26593 50:0.1576 51:0.0413371 52:0.19821 53:0.0459969 54:0.088746 55:0.0208942 56:0.0904281 57:0.0406229 58:0.0568116 59:0.0263348 60:0.16318 61:0.102276 62:0.161349 63:0.062317 64:0.519234 65:0.91078 66:5.82604e-10 67:4.40565e-16 68:1.85455e-16 69:3.56774e-09 70:0.999999 71:0.244038 
1.1216642699213 1:0 2:0.105715 3:0.0338383 4:0.0519173 5:0.0493113 6:0.0324295 7:0.165805 8:0.136838 9:0.0736841 10:0.14755 11:0.0502686 12:0.139528 13:0.0222432 14:0.0614214 15:0.0737922 16:0.0731787 17:0.101117 18:0.125443 19:0.213772 20:0.086617 21:0.0980724 22:0.140244 23:0.116159 24:0.107315 25:0.0842744 26:0.154817 27:0.362751 28:0.0625098 29:0.0796896 30:0.273853 31:0.146416 32:0.107676 33:0.0764871 34:0.168363 35:0.136563 36:0.10961 37:0.324568 38:0.262507 39:0.164054 40:0.204012 41:0.109256 42:0.0812077 43:0.0336037 44:0.0926459 45:0.0313087 46:0.0650275 47:0.0752261 48:0.081935 49:0.129018 50:0.05905 51:0.117982 52:0.102007 53:0.0205191 54:0.103689 55:0.077333 56:0.0164062 57:0.123376 58:0.0453438 59:0.0567525 60:0.115527 61:0.0182768 62:0.0416691 63:0.0213538 64:0.376991 65:0.910771 66:9.7974e-11 67:3.87222e-17 68:1.40693e-18 69:3.56774e-09 70:0.999999 71:0.244038 
2 1:0 2:0.151744 3:0.0548452 4:0.0267888 5:0.175182 6:0.159268 7:0.059441 8:0.107776 9:0.0754561 10:0.0140306 11:0.0719445 12:0.0944601 13:0.0299165 14:0.00652954 15:0.0440066 16:0.0448371 17:0.00978952 18:0.155552 19:0.109761 20:0.0367068 21:0.0645897 22:0.162069 23:0.30196 24:0.116906 25:0.138221 26:0.0546572 27:0.0718928 28:0.235203 29:0.29317 30:0.0539179 31:0.0771403 32:0.268306 33:0.0461143 34:0.161774 35:0.0661284 36:0.129358 37:0.170678 38:0.0624585 39:0.108805 40:0.115436 41:0.0516317 42:0.246063 43:0.149932 44:0.00398438 45:0.11199 46:0.0826678 47:0.0614315 48:0.0159521 49:0.0788093 50:0.0302879 51:0.0545614 52:0.0522704 53:0.0296272 54:0.0861191 55:0.0290075 56:0.191174 57:0.136692 58:0.0392578 59:0.196246 60:0.0810775 61:0.0436794 62:0.118622 63:0.0680247 64:0.428894 65:0.910774 66:2.1238e-10 67:1.9072e-16 68:2.49602e-17 69:3.56774e-09 70:0.999999 71:0.244038 
1.218913342503345 1:0 2:0.254127 3:0.586501 4:0.333958 5:0.0525689 6:0.197387 7:0.40529 8:0.594786 9:0.141126 10:0.679151 11:0.226378 12:0.175837 13:0.249801 14:0.197184 15:0.245103 16:0.237194 17:0.19161 18:0.40447 19:0.291074 20:0.149644 21:0.205483 22:0.025784 23:0.259465 24:0.239866 25:0.311849 26:0.551831 27:0.238071 28:0.180804 29:0.26802 30:0.266888 31:0.271965 32:0.095647 33:0.217604 34:0.285067 35:0.0659044 36:0.210357 37:0.555546 38:0.151079 39:0.165552 40:0.499381 41:0.521761 42:0.283901 43:0.130597 44:0.127779 45:0.282822 46:0.130431 47:0.351122 48:0.292446 49:0.353948 50:0.145524 51:0.234123 52:0.178815 53:0.192427 54:0.231669 55:0.240164 56:0.645302 57:0.249026 58:0.521043 59:0.476093 60:0.16251 61:0.0465193 62:0.308907 63:0.589686 64:0.120592 65:0.914833 66:1.59252e-05 67:5.18382e-09 68:3.70563e-09 69:3.56774e-09 70:0.999999 71:0.244038 
0.5148150162504611 1:0 2:0.229494 3:0.403603 4:0.353213 5:0.0792364 6:0.205079 7:0.15321 8:0.206412 9:0.0428824 10:0.176301 11:0.0484923 12:0.144315 13:0.0149917 14:0.124701 15:0.0295625 16:0.162291 17:0.192251 18:0.269241 19:0.260647 20:0.231162 21:0.0972223 22:0.0400678 23:0.155771 24:0.0669855 25:0.128748 26:0.075445 27:0.0614281 28:0.127282 29:0.143766 30:0.252321 31:0.0827725 32:0.252324 33:0.0950033 34:0.194268 35:0.165385 36:0.30744 37:0.0566837 38:0.142244 39:0.116575 40:0.0459021 41:0.21445 42:0.283292 43:0.116287 44:0.0340209 45:0.215916 46:0.133219 47:0.382357 48:0.114168 49:0.194521 50:0.110741 51:0.0497479 52:0.100634 53:0.0673738 54:0.134115 55:0.0726107 56:0.183648 57:0.0339341 58:0.22279 59:0.178418 60:0.182152 61:0.0285561 62:0.340329 63:0.409245 64:0.0950129 65:0.914199 66:3.80589e-06 67:1.8309e-09 68:2.82876e-09 69:3.56774e-09 70:0.999999 71:0.244038 
1.230037775142894 1:0 2:0.140451 3:0.0365427 4:0.0475335 5:0.133674 6:0.0794538 7:0.20397 8:0.0633704 9:0.0886357 10:0.0254476 11:0.0213258 12:0.0801122 13:0.0462332 14:0.0441638 15:0.0687286 16:0.0992869 17:0.177841 18:0.131239 19:0.200203 20:0.129672 21:0.00960026 22:0.115294 23:0.0825535 24:0.0355648 25:0.157591 26:0.324451 27:0.0195867 28:0.127971 29:0.0935013 30:0.146019 31:0.0778272 32:0.0958104 33:0.205265 34:0.0665581 35:0.170563 36:0.0215555 37:0.169619 38:0.171833 39:0.230904 40:0.192716 41:0.257728 42:0.0558935 43:0.160418 44:0.227228 45:0.0784905 46:0.244149 47:0.136705 48:0.124932 49:0.0908541 50:0.0914597 51:0.0727856 52:0.157988 53:0.0486816 54:0.0275778 55:0.0633029 56:0.0470515 57:0.173395 58:0.0453094 59:0.0690301 60:0.0431797 61:0.0768183 62:0.124154 63:0.0237267 64:0.412844 65:0.910774 66:2.17899e-10 67:1.54027e-16 68:4.93161e-17 69:3.56774e-09 70:0.999999 71:0.244038 
2 1:0 2:0.134651 3:0.0607504 4:0.0703717 5:0.0559078 6:0.0416901 7:0.0961425 8:0.0199013 9:0.0509385 10:0.0104685 11:0.179332 12:0.158369 13:0.190444 14:0.0363292 15:0.0216791 16:0.0562515 17:0.146538 18:0.0726004 19:0.0397419 20:0.0818709 21:0.150062 22:0.1795 23:0.192325 24:0.128166 25:0.0938453 26:0.112588 27:0.144879 28:0.101277 29:0.106747 30:0.084667 31:0.102221 32:0.144425 33:0.138092 34:0.14748 35:0.0250983 36:0.131466 37:0.119405 38:0.0149892 39:0.130587 40:0.141788 41:0.0338738 42:0.0666818 43:0.0296191 44:0.0540576 45:0.113542 46:0.0902861 47:0.0396798 48:0.0617502 49:0.102025 50:0.0513215 51:0.192385 52:0.0521902 53:0.0650496 54:0.0685065 55:0.0589818 56:0.0376192 57:0.0780401 58:0.0712558 59:0.0873942 60:0.118469 61:0.0955314 62:0.0485874 63:0.0459095 64:0.390835 65:0.910773 66:1.50903e-10 67:2.89156e-16 68:1.2039e-17 69:3.56774e-09 70:0.999999 71:0.244038 
0.2004184321772278 1:0 2:0.216942 3:0.439955 4:0.358446 5:0.106352 6:0.300544 7:0.214638 8:0.256021 9:0.248434 10:0.212552 11:0.0527327 12:0.0750454 13:0.0739848 14:0.110088 15:0.195689 16:0.220445 17:0.173547 18:0.118122 19:0.0975422 20:0.178943 21:0.267959 22:0.143689 23:0.550835 24:0.119514 25:0.234028 26:0.261043 27:0.528382 28:0.420964 29:0.249798 30:0.385732 31:0.319808 32:0.16566 33:0.0292207 34:0.296809 35:0.415746 36:0.275739 37:0.236428 38:0.295332 39:0.47386 40:0.189544 41:0.231878 42:0.181647 43:0.474966 44:0.152759 45:0.203816 46:0.275365 47:0.155852 48:0.144731 49:0.167218 50:0.216104 51:0.104298 52:0.146393 53:0.03398 54:0.122946 55:0.101707 56:0.217666 57:0.225934 58:0.258246 59:0.264054 60:0.292062 61:0.122862 62:0.337173 63:0.443017 64:0.0874768 65:0.914034 66:5.96793e-07 67:8.93195e-10 68:2.71495e-09 69:3.56774e-09 70:0.999999 71:0.244038 
0.8338978895678039 1:0 2:0.163928 3:0.0331604 4:0.0315491 5:0.204222 6:0.0948129 7:0.103818 8:0.0479973 9:0.0840938 10:0.0964022 11:0.0216247 12:0.136439 13:0.0882477 14:0.123134 15:0.0697629 16:0.0853408 17:0.106434 18:0.0544758 19:0.0694907 20:0.0579786 21:0.200329 22:0.106983 23:0.146464 24:0.021868 25:0.180324 26:0.209735 27:0.12612 28:0.0747066 29:0.214246 30:0.211923 31:0.154176 32:0.197471 33:0.0791674 34:0.227061 35:0.0515744 36:0.137111 37:0.0385205 38:0.179833 39:0.0840188 40:0.148654 41:0.117265 42:0.118666 43:0.108412 44:0.111525 45:0.0705705 46:0.0344884 47:0.0814602 48:0.123881 49:0.0145012 50:0.0355264 51:0.0707095 52:0.0732896 53:0.0712589 54:0.0675381 55:0.1641 56:0.154825 57:0.0608058 58:0.0331748 59:0.0319252 60:0.107506 61:0.161678 62:0.130157 63:0.0333455 64:0.41182 65:0.910776 66:3.09581e-10 67:2.09001e-16 68:8.26324e-17 69:3.56774e-09 70:0.999999 71:0.244038 
1.491934429939553 1:0 2:0.227121 3:0.0605287 4:0.0636589 5:0.159644 6:0.0686339 7:0.165973 8:0.0767836 9:0.0287465 10:0.0939174 11:0.0464683 12:0.163469 13:0.0973261 14:0.20616 15:0.0634701 16:0.171346 17:0.20159 18:0.0726809 19:0.0869999 20:0.0951189 21:0.0897366 22:0.0841029 23:0.164818 24:0.0245099 25:0.0892051 26:0.108903 27:0.0183941 28:0.103542 29:0.0444084 30:0.264421 31:0.119703 32:0.345281 33:0.145539 34:0.137274 35:0.107038 36:0.383173 37:0.239797 38:0.204682 39:0.251863 40:0.136282 41:0.171571 42:0.0148104 43:0.224517 44:0.0393723 45:0.142488 46:0.0728293 47:0.149713 48:0.157172 49:0.157288 50:0.138004 51:0.0549834 52:0.178503 53:0.187072 54:0.0509706 55:0.0826683 56:0.0897677 57:0.0875713 58:0.0459183 59:0.0324408 60:0.173693 61:0.107422 62:0.148454 63:0.0470909 64:0.494594 65:0.910778 66:4.41309e-10 67:5.17974e-16 68:1.87061e-16 69:3.56774e-09 70:0.999999 71:0.244038 
2 1:0 2:0.137721 3:0.0611275 4:0.0489641 5:0.0896527 6:0.0989482 7:0.111214 8:0.0492252 9:0.0757315 10:0.0594517 11:0.0449336 12:0.0594922 13:0.054462 14:0.024329 15:0.0282156 16:0.231066 17:0.245507 18:0.168495 19:0.0983687 20:0.133283 21:0.0458379 22:0.0966658 23:0.0308826 24:0.0855509 25:0.0671503 26:0.216524 27:0.123451 28:0.167372 29:0.130807 30:0.079928 31:0.152317 32:0.252252 33:0.199115 34:0.222115 35:0.336336 36:0.305786 37:0.165886 38:0.132541 39:0.148899 40:0.0352727 41:0.125374 42:0.116572 43:0.0703032 44:0.0938557 45:0.181591 46:0.0895999 47:0.227817 48:0.0459689 49:0.0486625 50:0.0992859 51:0.13413 52:0.0626128 53:0.0806776 54:0.0348574 55:0.150985 56:0.076906 57:0.0908318 58:0.0794807 59:0.0481444 60:0.14233 61:0.102713 62:0.110525 63:0.0217021 64:0.403757 65:0.910774 66:2.20166e-10 67:4.10254e-16 68:6.06842e-17 69:3.56774e-09 70:0.999999 71:0.244038 
0.5345980881670278 1:0 2:0.128022 3:0.0636302 4:0.0379286 5:0.107419 6:0.0860392 7:0.0449833 8:0.0904633 9:0.0853929 10:0.100736 11:0.0699482 12:0.0671735 13:0.0978106 14:0.0782575 15:0.0775853 16:0.121647 17:0.0816201 18:0.0887939 19:0.123274 20:0.189132 21:0.0207633 22:0.118765 23:0.193298 24:0.076562 25:0.0290111 26:0.132389 27:0.148254 28:0.147235 29:0.187149 30:0.135296 31:0.099735 32:0.0253824 33:0.195512 34:0.0407393 35:0.132073 36:0.113313 37:0.103672 38:0.250646 39:0.0772136 40:0.256494 41:0.294777 42:0.149348 43:0.0802262 44:0.162871 45:0.138481 46:0.0889785 47:0.081819 48:0.0656003 49:0.00929282 50:0.0598334 51:0.0360001 52:0.149705 53:0.0244174 54:0.0901375 55:0.0612124 56:0.029654 57:0.06578 58:0.0733277 59:0.0250323 60:0.113897 61:0.113781 62:0.11106 63:0.0205558 64:0.396362 65:0.910774 66:1.89999e-10 67:4.51034e-16 68:7.26114e-17 69:3.56774e-09 70:0.999999 71:0.244038 
1.388230296911456 1:0 2:0.0960755 3:0.0343464 4:0.0601988 5:0.102106 6:0.0861937 7:0.00893811 8:0.087468 9:0.0292098 10:0.0519161 11:0.0503968 12:0.158853 13:0.12465 14:0.0157798 15:0.058253 16:0.0695767 17:0.0721175 18:0.0984765 19:0.0571603 20:0.0643148 21:0.108944 22:0.0384117 23:0.129374 24:0.0734745 25:0.0228978 26:0.105099 27:0.164508 28:0.0618434 29:0.120681 30:0.1859 31:0.0329189 32:0.156667 33:0.196222 34:0.185425 35:0.146946 36:0.233673 37:0.272819 38:0.0269558 39:0.0650176 40:0.142891 41:0.118544 42:0.0753007 43:0.0809154 44:0.0514098 45:0.185263 46:0.0400358 47:0.0383721 48:0.0598586 49:0.060995 50:0.0660727 51:0.0507385 52:0.0793095 53:0.11167 54:0.143172 55:0.0484263 56:0.0937508 57:0.00253272 58:0.0421095 59:0.0748727 60:0.092173 61:0.0838866 62:0.0958098 63:0.051399 64:0.385157 65:0.910771 66:1.10852e-10 67:9.7621e-17 68:1.44434e-17 69:3.56774e-09 70:0.999999 71:0.244038 
1.416165423276894 1:0 2:0.263859 3:0.0656161 4:0.0830011 5:0.155291 6:0.0356642 7:0.00828079 8:0.0390087 9:0.136539 10:0.0652379 11:0.0976695 12:0.049043 13:0.0655499 14:0.0732349 15:0.0127041 16:0.0362932 17:0.074287 18:0.0966557 19:0.153027 20:0.0802563 21:0.153406 22:0.0682738 23:0.170579 24:0.0218596 25:0.0129257 26:0.152826 27:0.252495 28:0.337409 29:0.26244 30:0.098585 31:0.189634 32:0.52369 33:0.156198 34:0.150145 35:0.253014 36:0.420922 37:0.146514 38:0.130809 39:0.167335 40:0.242958 41:0.310283 42:0.247714 43:0.143433 44:0.171421 45:0.0984821 46:0.0261942 47:0.0544215 48:0.0672336 49:0.0560798 50:0.0672942 51:0.0784017 52:0.0971741 53:0.166398 54:0.0677285 55:0.0580411 56:0.0318587 57:0.102376 58:0.037287 59:0.0945159 60:0.121779 61:0.139247 62:0.225956 63:0.0327108 64:0.49791 65:0.910784 66:7.43359e-10 67:6.49995e-16 68:2.66765e-16 69:3.56774e-09 70:0.999999 71:0.244038 
2 1:0 2:0.13493 3:0.027521 4:0.049208 5:0.103704 6:0.16034 7:0.0895064 8:0.0753143 9:0.0539816 10:0.0552281 11:0.118112 12:0.178639 13:0.0574306 14:0.0668165 15:0.130744 16:0.138725 17:0.198909 18:0.0179188 19:0.106386 20:0.153147 21:0.143997 22:0.0807821 23:0.138228 24:0.0817361 25:0.0821121 26:0.122674 27:0.0978565 28:0.196223 29:0.189911 30:0.144884 31:0.10412 32:0.130335 33:0.00126868 34:0.16891 35:0.153863 36:0.0151755 37:0.0531339 38:0.196655 39:0.221207 40:0.116423 41:0.0438743 42:0.156006 43:0.0184142 44:0.217255 45:0.203967 46:0.132771 47:0.060173 48:0.133575 49:0.224251 50:0.0203788 51:0.15701 52:0.0987923 53:0.0902498 54:0.194089 55:0.0929405 56:0.0828263 57:0.0124605 58:0.0589841 59:0.0614985 60:0.160306 61:0.086019 62:0.135104 63:0.0481646 64:0.411658 65:0.910774 66:2.17607e-10 67:2.02776e-16 68:3.84428e-17 69:3.56774e-09 70:0.999999 71:0.244038 
1.909973617186182 1:0 2:0.180926 3:0.0401028 4:0.0360657 5:0.137325 6:0.111148 7:0.115128 8:0.079495 9:0.0495858 10:0.0312466 11:0.0590044 12:0.00523389 13:0.116415 14:0.078325 15:0.0391013 16:0.00985021 17:0.0400215 18:0.0377706 19:0.0771278 20:0.17449 21:0.176296 22:0.11 23:0.0470966 24:0.102424 25:0.0639524 26:0.216964 27:0.229737 28:0.311967 29:0.27566 30:0.129079 31:0.23759 32:0.15767 33:0.342906 34:0.0561226 35:0.0579132 36:0.107971 37:0.242675 38:0.323544 39:0.0834114 40:0.308548 41:0.0310179 42:0.148443 43:0.103868 44:0.158207 45:0.129188 46:0.0407893 47:0.120172 48:0.100251 49:0.0437321 50:0.117176 51:0.109906 52:0.0579125 53:0.169583 54:0.0787583 55:0.0341646 56:0.0680692 57:0.0882754 58:0.0409099 59:0.0283878 60:0.124366 61:0.10671 62:0.128459 63:0.029823 64:0.449691 65:0.910776 66:3.17581e-10 67:2.36577e-16 68:1.00645e-16 69:3.56774e-09 70:0.999999 71:0.244038 
0.167631953210391 1:0 2:0.209492 3:0.05129 4:0.035203 5:0.172753 6:0.088332 7:0.101028 8:0.08805 9:0.0364485 10:0.14164 11:0.063334 12:0.0332551 13:0.0518012 14:0.145644 15:0.0611705 16:0.195671 17:0.068764 18:0.0359726 19:0.0373404 20:0.10621 21:0.0313756 22:0.0578262 23:0.182101 24:0.208676 25:0.147098 26:0.120019 27:0.117696 28:0.116274 29:0.464703 30:0.199979 31:0.165614 32:0.171553 33:0.121604 34:0.256463 35:0.123412 36:0.325629 37:0.153793 38:0.249151 39:0.149283 40:0.153503 41:0.379741 42:0.066627 43:0.123824 44:0.207768 45:0.0892226 46:0.137956 47:0.139527 48:0.155641 49:0.0456811 50:0.0995821 51:0.0551162 52:0.042075 53:0.0364743 54:0.0782058 55:0.0510323 56:0.126826 57:0.0923989 58:0.0756684 59:0.0437859 60:0.0834633 61:0.156251 62:0.155152 63:0.0479511 64:0.464838 65:0.910778 66:4.07111e-10 67:4.29409e-16 68:1.98942e-16 69:3.56774e-09 70:0.999999 71:0.244038 
2 1:0 2:0.0975179 3:0.0605671 4:0.0454876 5:0.140504 6:0.152958 7:0.181097 8:0.108669 9:0.051714 10:0.0439121 11:0.0447493 12:0.0156621 13:0.0245196 14:0.185816 15:0.0259053 16:0.0945646 17:0.0626339 18:0.102563 19:0.0693933 20:0.0470147 21:0.183587 22:0.0694879 23:0.0893444 24:0.0791196 25:0.243424 26:0.183529 27:0.328319 28:0.141211 29:0.0230981 30:0.237625 31:0.0794201 32:0.0326702 33:0.0257356 34:0.148227 35:0.119354 36:0.205948 37:0.228524 38:0.102578 39:0.329174 40:0.168869 41:0.319048 42:0.0785988 43:0.0831043 44:0.0248788 45:0.0646486 46:0.119009 47:0.0303826 48:0.0915529 49:0.0564495 50:0.0493441 51:0.115497 52:0.121357 53:0.127122 54:0.0333792 55:0.137942 56:0.0237393 57:0.0749978 58:0.131571 59:0.0283451 60:0.0906824 61:0.0708882 62:0.110085 63:0.0453184 64:0.361683 65:0.910772 66:1.41547e-10 67:1.90757e-16 68:2.07725e-17 69:3.56774e-09 70:0.999999 71:0.244038 
0.8460051138602669 1:0 2:0.182238 3:0.0353926 4:0.0440849 5:0.119299 6:0.0559932 7:0.0677426 8:0.110189 9:0.0336917 10:0.0562793 11:0.0924926 12:0.0893188 13:0.0368026 14:0.0949027 15:0.112028 16:0.0569707 17:0.0215215 18:0.0565988 19:0.0856843 20:0.138137 21:0.0712849 22:0.16114 23:0.166541 24:0.0814626 25:0.0554243 26:0.193113 27:0.16968 28:0.179589 29:0.141057 30:0.192196 31:0.299944 32:0.0523037 33:0.0421593 34:0.202849 35:0.26643 36:0.236119 37:0.168199 38:0.0945994 39:0.215789 40:0.197898 41:0.0257621 42:0.204037 43:0.118401 44:0.0962502 45:0.102195 46:0.164076 47:0.0279647 48:0.0881001 49:0.114573 50:0.0502378 51:0.0722065 52:0.0584762 53:0.0971123 54:0.0389875 55:0.0220889 56:0.0935443 57:0.138131 58:0.0825967 59:0.0326218 60:0.113055 61:0.129822 62:0.176161 63:0.0385405 64:0.443754 65:0.910777 66:3.72032e-10 67:2.71e-16 68:1.08883e-16 69:3.56774e-09 70:0.999999 71:0.244038 
2 1:0 2:0.116951 3:0.0726509 4:0.0506553 5:0.0404868 6:0.0551999 7:0.232309 8:0.00974845 9:0.0949132 10:0.0520834 11:0.055779 12:0.0231288 13:0.0123893 14:0.0491656 15:0.152643 16:0.115737 17:0.0378098 18:0.0663289 19:0.162532 20:0.00411174 21:0.0422473 22:0.0697979 23:0.0768096 24:0.054773 25:0.0773532 26:0.195768 27:0.216545 28:0.115327 29:0.113121 30:0.150205 31:0.09099 32:0.0842783 33:0.0414508 34:0.369559 35:0.0725991 36:0.0877118 37:0.106813 38:0.14509 39:0.0456175 40:0.0922595 41:0.144097 42:0.0809078 43:0.180239 44:0.15147 45:0.0568237 46:0.0684721 47:0.0881023 48:0.0463264 49:0.0232324 50:0.0853835 51:0.107352 52:0.111024 53:0.00619252 54:0.140544 55:0.0562401 56:0.144125 57:0.0564955 58:0.0610737 59:0.123374 60:0.151463 61:0.191218 62:0.0721479 63:0.0665142 64:0.36079 65:0.910773 66:1.26375e-10 67:7.16576e-16 68:2.11079e-16 69:3.56774e-09 70:0.999999 71:0.244038 
0.1201061073606786 1:0 2:0.142312 3:0.051524 4:0.0221029 5:0.143762 6:0.0847546 7:0.0533427 8:0.0399589 9:0.0641685 10:0.046547 11:0.046458 12:0.108648 13:0.042162 14:0.0912946 15:0.120325 16:0.225759 17:0.102477 18:0.11466 19:0.115097 20:0.102992 21:0.0743035 22:0.0712252 23:0.0660939 24:0.0792074 25:0.116365 26:0.258951 27:0.31608 28:0.0527676 29:0.26694 30:0.310106 31:0.0476736 32:0.350833 33:0.321963 34:0.106081 35:0.181792 36:0.256624 37:0.215281 38:0.22259 39:0.0333308 40:0.127476 41:0.0770231 42:0.0271851 43:0.111187 44:0.0602461 45:0.0849505 46:0.12941 47:0.111493 48:0.173101 49:0.0484603 50:0.116043 51:0.0923366 52:0.10773 53:0.0361696 54:0.0681079 55:0.130634 56:0.179224 57:0.101791 58:0.045244 59:0.114969 60:0.0855449 61:0.145747 62:0.135517 63:0.0339069 64:0.401972 65:0.910775 66:2.42524e-10 67:3.68347e-16 68:7.1391e-17 69:3.56774e-09 70:0.999999 71:0.244038 
0.9922479920093951 1:0 2:0.248173 3:0.0458176 4:0.0829172 5:0.0899831 6:0.0528958 7:0.0758962 8:0.191702 9:0.0613847 10:0.0515982 11:0.0189366 12:0.0496823 13:0.0549797 14:0.0556581 15:0.0927674 16:0.113812 17:0.128865 18:0.163608 19:0.208219 20:0.178689 21:0.0787982 22:0.0776789 23:0.0277686 24:0.132241 25:0.252468 26:0.473092 27:0.274585 28:0.299694 29:0.284347 30:0.302429 31:0.18733 32:0.170851 33:0.042089 34:0.128275 35:0.0903659 36:0.450617 37:0.392133 38:0.26409 39:0.186942 40:0.0850873 41:0.0453221 42:0.269893 43:0.357596 44:0.103246 45:0.141811 46:0.123715 47:0.15876 48:0.0852377 49:0.120459 50:0.0158995 51:0.145655 52:0.0303524 53:0.0235834 54:0.147794 55:0.0464171 56:0.0913416 57:0.0532318 58:0.113939 59:0.157063 60:0.122911 61:0.0481472 62:0.206067 63:0.0141705 64:0.499476 65:0.910781 66:6.17146e-10 67:1.25733e-16 68:4.15385e-17 69:3.56774e-09 70:0.999999 71:0.244038 
1.573806759084532 1:0 2:0.352595 3:0.48813 4:0.503554 5:0.205749 6:0.398728 7:0.338054 8:0.440823 9:0.202224 10:0.721724 11:0.102349 12:0.264006 13:0.139401 14:0.349889 15:0.340623 16:0.135122 17:0.439322 18:0.257033 19:0.175457 20:0.0594529 21:0.319475 22:0.189088 23:0.196467 24:0.252775 25:0.1254 26:0.441399 27:0.289579 28:0.44072 29:0.357399 30:0.614803 31:0.139792 32:0.0557921 33:0.438356 34:0.116096 35:0.22699 36:0.574085 37:0.285653 38:0.535573 39:0.143612 40:0.345815 41:0.495744 42:0.391739 43:0.170985 44:0.235274 45:0.429973 46:0.0488807 47:0.312129 48:0.252026 49:0.335237 50:0.201398 51:0.220225 52:0.336964 53:0.0948729 54:0.261521 55:0.0891012 56:0.67749 57:0.308566 58:0.37308 59:0.324999 60:0.355958 61:0.271873 62:0.486704 63:0.494404 64:0.198105 65:0.913963 66:7.97931e-06 67:9.01862e-09 68:2.01016e-09 69:3.56774e-09 70:0.999999 71:0.244038 
2 1:0 2:0.272633 3:0.13771 4:0.09633 5:0.0636849 6:0.15692 7:0.0337113 8:0.112744 9:0.0379789 10:0.16328 11:0.0789409 12:0.0984499 13:0.100091 14:0.0466651 15:0.0726505 16:0.155584 17:0.105948 18:0.0913803 19:0.109691 20:0.112723 21:0.19634 22:0.0769864 23:0.0838117 24:0.0196665 25:0.185373 26:0.187411 27:0.109964 28:0.213383 29:0.164037 30:0.0381778 31:0.122783 32:0.0627785 33:0.350481 34:0.146623 35:0.169654 36:0.18923 37:0.214014 38:0.0754168 39:0.084735 40:0.150054 41:0.0566553 42:0.0943393 43:0.135038 44:0.0588365 45:0.0839715 46:0.106244 47:0.113932 48:0.0393261 49:0.0252048 50:0.0224744 51:0.128649 52:0.193363 53:0.0784039 54:0.157634 55:0.0369639 56:0.14198 57:0.142087 58:0.132783 59:0.123341 60:0.198063 61:0.133087 62:0.159952 63:0.087143 64:0.452666 65:0.910788 66:8.69912e-10 67:3.32538e-15 68:6.02664e-16 69:3.56774e-09 70:0.999999 71:0.244038 
0.1679781992710279 1:0 2:0.258911 3:0.0390121 4:0.151547 5:0.0928667 6:0.0439261 7:0.162015 8:0.0648565 9:0.0282394 10:0.0885091 11:0.0850765 12:0.0901493 13:0.116652 14:0.112025 15:0.169311 16:0.0614528 17:0.0471118 18:0.145991 19:0.0301155 20:0.183673 21:0.103567 22:0.0254956 23:0.166602 24:0.0562128 25:0.133166 26:0.198945 27:0.157866 28:0.0897988 29:0.235599 30:0.159932 31:0.259332 32:0.384452 33:0.0719396 34:0.0671384 35:0.274225 36:0.159718 37:0.392779 38:0.406144 39:0.0888484 40:0.113492 41:0.349828 42:0.0661305 43:0.162144 44:0.140289 45:0.10765 46:0.0846107 47:0.263737 48:0.153593 49:0.074326 50:0.0636746 51:0.0771293 52:0.0452594 53:0.0630985 54:0.0337269 55:0.0956765 56:0.0466978 57:0.112592 58:0.17103 59:0.115358 60:0.0297929 61:0.0195177 62:0.254948 63:0.0265772 64:0.532115 65:0.910783 66:6.67534e-10 67:9.72753e-17 68:2.37585e-17 69:3.56774e-09 70:0.999999 71:0.244038 
1.64831903211087 1:0 2:0.264769 3:0.057672 4:0.0589376 5:0.123475 6:0.0853722 7:0.143398 8:0.0697322 9:0.049716 10:0.209068 11:0.147377 12:0.135183 13:0.115591 14:0.0505427 15:0.0230399 16:0.0074366 17:0.148357 18:0.169608 19:0.129153 20:0.0668313 21:0.168612 22:0.0720099 23:0.290516 24:0.16157 25:0.225552 26:0.177321 27:0.383796 28:0.201114 29:0.201372 30:0.104757 31:0.420005 32:0.116087 33:0.465366 34:0.405359 35:0.376537 36:0.383097 37:0.2997 38:0.432976 39:0.17004 40:0.109202 41:0.121899 42:0.197909 43:0.109496 44:0.16473 45:0.0965524 46:0.226942 47:0.0573534 48:0.0334175 49:0.15786 50:0.0545916 51:0.104465 52:0.107548 53:0.122377 54:0.107959 55:0.156833 56:0.161789 57:0.132502 58:0.0968884 59:0.0794475 60:0.112842 61:0.0766788 62:0.180221 63:0.0137036 64:0.482193 65:0.910783 66:7.58672e-10 67:5.07159e-16 68:2.89525e-16 69:3.56774e-09 70:0.999999 71:0.244038 
0.9420154695698273 1:0 2:0.243248 3:0.066626 4:0.0940447 5:0.0693352 6:0.0547708 7:0.13571 8:0.039658 9:0.0738626 10:0.128273 11:0.0923801 12:0.097901 13:0.0786876 14:0.225397 15:0.17619 16:0.100676 17:0.0244933 18:0.119359 19:0.121211 20:0.0502887 21:0.0289921 22:0.207771 23:0.154574 24:0.216455 25:0.163308 26:0.134876 27:0.307485 28:0.30005 29:0.149193 30:0.160223 31:0.0702002 32:0.150437 33:0.38652 34:0.301202 35:0.0768479 36:0.210396 37:0.104291 38:0.165371 39:0.315709 40:0.421805 41:0.293303 42:0.124065 43:0.170637 44:0.468011 45:0.190524 46:0.108972 47:0.106216 48:0.127596 49:0.0331669 50:0.154136 51:0.0249165 52:0.0908807 53:0.13286 54:0.146885 55:0.0195571 56:0.07878 57:0.0806324 58:0.0745086 59:0.153654 60:0.127158 61:0.154329 62:0.167374 63:0.0456193 64:0.485025 65:0.910781 66:5.47647e-10 67:1.00643e-15 68:4.26762e-16 69:3.56774e-09 70:0.999999 71:0.244038 
2 1:0 2:0.160764 3:0.0871906 4:0.018255 5:0.123358 6:0.159738 7:0.0896243 8:0.125834 9:0.0466089 10:0.0274644 11:0.0310871 12:0.107553 13:0.163987 14:0.119404 15:0.1626 16:0.0587493 17:0.0145602 18:0.0837522 19:0.214996 20:0.0994739 21:0.0237623 22:0.144118 23:0.201715 24:0.0733509 25:0.127268 26:0.172307 27:0.310353 28:0.253848 29:0.0748801 30:0.142635 31:0.0548115 32:0.110072 33:0.0133287 34:0.0321989 35:0.138604 36:0.112838 37:0.177748 38:0.0930174 39:0.144912 40:0.107462 41:0.0648402 42:0.298348 43:0.120432 44:0.109157 45:0.0556187 46:0.0773182 47:0.0620047 48:0.0849943 49:0.0103677 50:0.0232839 51:0.0382969 52:0.0996703 53:0.0894211 54:0.180256 55:0.131983 56:0.0523338 57:0.115026 58:0.178831 59:0.063177 60:0.226365 61:0.31429 62:0.078353 63:0.111242 64:0.411417 65:0.910776 66:3.29165e-10 67:6.13237e-16 68:1.66336e-16 69:3.56774e-09 70:0.999999 71:0.244038 
2 1:0 2:0.068442 3:0.0358356 4:0.0554535 5:0.072649 6:0.150766 7:0.182301 8:0.0420916 9:0.0533941 10:0.0514707 11:0.056648 12:0.112026 13:0.0707894 14:0.0685631 15:0.0432881 16:0.0544807 17:0.0850206 18:0.0842641 19:0.188539 20:0.0586795 21:0.107325 22:0.031658 23:0.0861289 24:0.0840617 25:0.139763 26:0.221322 27:0.157071 28:0.0738636 29:0.0260105 30:0.0874869 31:0.116751 32:0.102969 33:0.0938125 34:0.0778392 35:0.0588911 36:0.148156 37:0.0799628 38:0.0918003 39:0.116835 40:0.0886342 41:0.119516 42:0.164289 43:0.0976669 44:0.169199 45:0.0659634 46:0.0796635 47:0.154811 48:0.176771 49:0.0229576 50:0.0359652 51:0.105466 52:0.0562842 53:0.0531041 54:0.219506 55:0.132096 56:0.0676739 57:0.142631 58:0.196214 59:0.0780295 60:0.0564355 61:0.0643372 62:0.00231426 63:0.0546772 64:0.331475 65:0.91077 66:3.72892e-11 67:4.50456e-17 68:1.30307e-18 69:3.56774e-09 70:0.999999 71:0.244038 
0.6823974244363936 1:0 2:0.185065 3:0.0364698 4:0.0231739 5:0.0474658 6:0.0182656 7:0.0526842 8:0.0770297 9:0.0502806 10:0.036969 11:0.0514784 12:0.0858771 13:0.187781 14:0.0359073 15:0.108454 16:0.113626 17:0.073352 18:0.0693183 19:0.0744263 20:0.0936788 21:0.145604 22:0.178602 23:0.0141007 24:0.0630916 25:0.194628 26:0.229665 27:0.187971 28:0.0718535 29:0.179524 30:0.0991318 31:0.0783064 32:0.0349101 33:0.344655 34:0.0415306 35:0.25851 36:0.216858 37:0.223479 38:0.097171 39:0.22136 40:0.070326 41:0.0703258 42:0.176598 43:0.0611462 44:0.160851 45:0.0881532 46:0.168284 47:0.151686 48:0.279675 49:0.221762 50:0.0490465 51:0.071287 52:0.124871 53:0.119536 54:0.0210397 55:0.0283153 56:0.0284055 57:0.0239145 58:0.0400851 59:0.0245028 60:0.109843 61:0.112351 62:0.109004 63:0.0256272 64:0.476631 65:0.910774 66:2.76585e-10 67:1.24498e-16 68:2.50271e-17 69:3.56774e-09 70:0.999999 71:0.244038 
2 1:0 2:0.135519 3:0.0731371 4:0.0566874 5:0.0954008 6:0.104614 7:0.0703942 8:0.0481546 9:0.0685365 10:0.097609 11:0.140037 12:0.0594402 13:0.0441509 14:0.111099 15:0.0282716 16:0.0937125 17:0.0701219 18:0.0548695 19:0.0740327 20:0.077709 21:0.0820066 22:0.0499654 23:0.129868 24:0.066465 25:0.110634 26:0.228482 27:0.123054 28:0.0884043 29:0.202762 30:0.102978 31:0.143979 32:0.168085 33:0.127052 34:0.189725 35:0.0361169 36:0.223516 37:0.151417 38:0.00843258 39:0.103006 40:0.0696543 41:0.20084 42:0.0625835 43:0.223789 44:0.0211556 45:0.129651 46:0.0719572 47:0.0711632 48:0.121459 49:0.131586 50:0.0889484 51:0.099942 52:0.12202 53:0.200313 54:0.084046 55:0.0833592 56:0.0581311 57:0.0344595 58:0.0991115 59:0.0619851 60:0.136173 61:0.206187 62:0.118099 63:0.0291014 64:0.406212 65:0.910775 66:2.15062e-10 67:5.90173e-16 68:5.82885e-17 69:3.56774e-09 70:0.999999 71:0.244038 
2 1:0 2:0.164201 3:0.0412454 4:0.041583 5:0.046003 6:0.222415 7:0.0859561 8:0.0770268 9:0.0800343 10:0.135229 11:0.112246 12:0.0925462 13:0.0455271 14:0.0344172 15:0.0400077 16:0.0680064 17:0.0212288 18:0.147208 19:0.120732 20:0.263145 21:0.0344343 22:0.118446 23:0.121068 24:0.0987373 25:0.0766705 26:0.123718 27:0.122609 28:0.163649 29:0.0868601 30:0.0312081 31:0.118205 32:0.0165662 33:0.149218 34:0.148993 35:0.057869 36:0.102003 37:0.146798 38:0.0231788 39:0.195104 40:0.099098 41:0.123093 42:0.201177 43:0.146822 44:0.20321 45:0.0595232 46:0.159117 47:0.132281 48:0.0760241 49:0.0987478 50:0.0764189 51:0.0188707 52:0.144675 53:0.0460984 54:0.0462897 55:0.0649963 56:0.238663 57:0.0872501 58:0.094083 59:0.0263659 60:0.147281 61:0.135306 62:0.101605 63:0.0134089 64:0.413742 65:0.910775 66:2.81535e-10 67:2.90425e-16 68:7.261e-17 69:3.56774e-09 70:0.999999 71:0.244038 
2 1:0 2:0.0759801 3:0.055614 4:0.0573275 5:0.0182426 6:0.10662 7:0.0810886 8:0.041734 9:0.0654765 10:0.071001 11:0.0850341 12:0.130284 13:0.0133222 14:0.0603345 15:0.0786957 16:0.0482993 17:0.0498831 18:0.0141135 19:0.0795399 20:0.030573 21:0.0308379 22:0.120059 23:0.142575 24:0.066689 25:0.0691543 26:0.152362 27:0.0617111 28:0.044744 29:0.100558 30:0.158384 31:0.020039 32:0.120209 33:0.0468895 34:0.0614861 35:0.0677225 36:0.022498 37:0.0187487 38:0.173625 39:0.153651 40:0.0485129 41:0.0925841 42:0.173282 43:0.0762535 44:0.141638 45:0.188728 46:0.0395608 47:0.210955 48:0.0324941 49:0.0802818 50:0.0254774 51:0.0650463 52:0.0839014 53:0.0943353 54:0.0699918 55:0.0580788 56:0.047253 57:0.126838 58:0.0797216 59:0.0693305 60:0.0900417 61:0.105292 62:0.0564894 63:0.0104867 64:0.373454 65:0.910771 66:6.46358e-11 67:2.16746e-16 68:4.61159e-18 69:3.56774e-09 70:0.999999 71:0.244038 
0.4501663107188514 1:0 2:0.259358 3:0.0497267 4:0.031303 5:0.1528 6:0.109211 7:0.0964576 8:0.085294 9:0.12456 10:0.0371939 11:0.0573403 12:0.0642397 13:0.0254748 14:0.0738313 15:0.101346 16:0.244896 17:0.091014 18:0.148169 19:0.144149 20:0.0191174 21:0.26908 22:0.042574 23:0.144119 24:0.0347936 25:0.130135 26:0.117182 27:0.0538058 28:0.110632 29:0.192039 30:0.143612 31:0.109839 32:0.152957 33:0.377712 34:0.165744 35:0.366741 36:0.315563 37:0.209858 38:0.0598797 39:0.29127 40:0.10543 41:0.169707 42:0.0799427 43:0.127557 44:0.301007 45:0.131098 46:0.134247 47:0.149553 48:0.0191159 49:0.0839397 50:0.123417 51:0.101149 52:0.0801956 53:0.100823 54:0.0887752 55:0.0950375 56:0.0974417 57:0.071819 58:0.0776903 59:0.0546016 60:0.127154 61:0.0599352 62:0.183287 63:0.0514173 64:0.513878 65:0.91078 66:5.70937e-10 67:4.61109e-16 68:2.3565e-16 69:3.56774e-09 70:0.999999 71:0.244038 
2 1:0 2:0.18719 3:0.056186 4:0.0495557 5:0.127597 6:0.0828136 7:0.149674 8:0.0498288 9:0.0161265 10:0.094883 11:0.0717414 12:0.0667811 13:0.0629408 14:0.138344 15:0.137079 16:0.0873649 17:0.106178 18:0.0854483 19:0.114845 20:0.0581745 21:0.115111 22:0.0969042 23:0.0930589 24:0.0120829 25:0.147739 26:0.115441 27:0.532383 28:0.0641809 29:0.247672 30:0.251028 31:0.117584 32:0.0193296 33:0.206323 34:0.109925 35:0.163087 36:0.327022 37:0.510447 38:0.242713 39:0.131667 40:0.0141089 41:0.197422 42:0.122956 43:0.241903 44:0.120063 45:0.107111 46:0.104916 47:0.114227 48:0.158879 49:0.0934207 50:0.121388 51:0.105049 52:0.0638414 53:0.0355998 54:0.104714 55:0.114774 56:0.0642668 57:0.108119 58:0.0467522 59:0.105145 60:0.173005 61:0.116395 62:0.108617 63:0.0123668 64:0.455895 65:0.910776 66:3.1417e-10 67:3.03918e-16 68:4.97854e-17 69:3.56774e-09 70:0.999999 71:0.244038 
2 1:0 2:0.0120734 3:0.0031011 4:0.0723215 5:0.0514165 6:0.103156 7:0.100484 8:0.136796 9:0.053567 10:0.0656473 11:0.0832943 12:0.042795 13:0.124071 14:0.00384993 15:0.0769861 16:0.0695439 17:0.0572072 18:0.178131 19:0.0734151 20:0.0807353 21:0.213262 22:0.049754 23:0.060478 24:0.0273363 25:0.144087 26:0.121039 27:0.0500831 28:0.104009 29:0.430984 30:0.206884 31:0.176382 32:0.0754571 33:0.196577 34:0.079504 35:0.209498 36:0.163529 37:0.0153684 38:0.277382 39:0.154277 40:0.152621 41:0.16046 42:0.0152814 43:0.106767 44:0.143438 45:0.20014 46:0.0892848 47:0.0620125 48:0.0830321 49:0.0628076 50:0.0499815 51:0.0568768 52:0.040554 53:0.131837 54:0.0593503 55:0.0492137 56:0.0651797 57:0.0260399 58:0.0847231 59:0.0615305 60:0.125145 61:0.0223235 62:0.0409882 63:0.0362189 64:0.326969 65:0.910769 66:4.08167e-12 67:1.74541e-17 68:6.40558e-19 69:3.56774e-09 70:0.999999 71:0.244038 
2 1:0 2:0.144302 3:0.0865742 4:0.0355504 5:0.0497828 6:0.175038 7:0.0639371 8:0.163943 9:0.0864963 10:0.0618324 11:0.0826154 12:0.0832546 13:0.133965 14:0.105584 15:0.143909 16:0.101128 17:0.130624 18:0.121875 19:0.141662 20:0.182203 21:0.0583747 22:0.0622154 23:0.201516 24:0.0774802 25:0.0671424 26:0.0509214 27:0.149166 28:0.0962475 29:0.214358 30:0.0741799 31:0.157796 32:0.0575313 33:0.18706 34:0.136171 35:0.0160707 36:0.0542153 37:0.275958 38:0.125535 39:0.0927097 40:0.196467 41:0.311115 42:0.209858 43:0.227572 44:0.175257 45:0.23537 46:0.0740193 47:0.0822998 48:0.100377 49:0.102713 50:0.079501 51:0.0929181 52:0.120613 53:0.110425 54:0.163071 55:0.035514 56:0.0963202 57:0.126101 58:0.0634489 59:0.0989783 60:0.247953 61:0.117841 62:0.0966869 63:0.0557934 64:0.402595 65:0.910774 66:1.93148e-10 67:7.99762e-16 68:5.58792e-17 69:3.56774e-09 70:0.999999 71:0.244038 
2 1:0 2:0.637321 3:0.158505 4:0.147409 5:0.532443 6:0.316351 7:0.157968 8:0.24023 9:0.25402 10:0.283057 11:0.23928 12:0.308606 13:0.031946 14:0.103277 15:0.323782 16:0.234925 17:0.20813 18:0.250359 19:0.280571 20:0.226419 21:0.239754 22:0.191534 23:0.253227 24:0.399707 25:0.266391 26:0.413892 27:0.295433 28:0.309787 29:0.0628601 30:0.421573 31:0.158762 32:0.375209 33:0.202743 34:0.299936 35:0.3349 36:0.212591 37:0.119001 38:0.130349 39:0.241357 40:0.465563 41:0.381438 42:0.482393 43:0.331177 44:0.254552 45:0.379215 46:0.149357 47:0.2039 48:0.13655 49:0.167082 50:0.194494 51:0.156377 52:0.248708 53:0.142821 54:0.245063 55:0.38041 56:0.28038 57:0.157901 58:0.233434 59:0.202756 60:0.224155 61:0.556492 62:0.144618 63:0.152028 64:0.432864 65:0.913928 66:7.09414e-06 67:5.04075e-10 68:1.17383e-10 69:3.56774e-09 70:0.999999 71:0.244038 
2 1:0 2:0.275625 3:0.0500141 4:0.053933 5:0.0907879 6:0.10831 7:0.06879 8:0.136806 9:0.0696516 10:0.106111 11:0.101823 12:0.0977521 13:0.134945 14:0.0612424 15:0.118933 16:0.205325 17:0.12662 18:0.201462 19:0.0746611 20:0.13806 21:0.0333122 22:0.151207 23:0.319138 24:0.13119 25:0.0906196 26:0.214038 27:0.200784 28:0.230513 29:0.138699 30:0.29404 31:0.368152 32:0.30265 33:0.376691 34:0.390653 35:0.257839 36:0.254258 37:0.160253 38:0.219487 39:0.112431 40:0.110651 41:0.197629 42:0.20899 43:0.32502 44:0.177513 45:0.0967659 46:0.197022 47:0.114088 48:0.125251 49:0.018701 50:0.0733552 51:0.0790047 52:0.0874871 53:0.0573214 54:0.0816818 55:0.0511843 56:0.167339 57:0.0729871 58:0.091098 59:0.0682961 60:0.0653658 61:0.0936424 62:0.208213 63:0.0406519 64:0.527634 65:0.910782 66:6.92548e-10 67:4.45722e-16 68:2.43009e-16 69:3.56774e-09 70:0.999999 71:0.244038 
2 1:0 2:0.282483 3:0.0936669 4:0.109496 5:0.162034 6:0.0554519 7:0.217348 8:0.0374785 9:0.1561 10:0.0832859 11:0.0660567 12:0.0977786 13:0.140906 14:0.189386 15:0.0370324 16:0.201327 17:0.0973129 18:0.128169 19:0.18418 20:0.0546665 21:0.0636638 22:0.119917 23:0.123227 24:0.134853 25:0.127726 26:0.144813 27:0.351424 28:0.193866 29:0.199924 30:0.188238 31:0.249507 32:0.250363 33:0.196766 34:0.225589 35:0.28129 36:0.244451 37:0.327966 38:0.188522 39:0.172807 40:0.0353831 41:0.151205 42:0.211568 43:0.0441524 44:0.159354 45:0.0824755 46:0.0711949 47:0.163307 48:0.0438625 49:0.0977077 50:0.0474496 51:0.0833972 52:0.152765 53:0.17214 54:0.035745 55:0.181009 56:0.193311 57:0.061858 58:0.0146714 59:0.0967982 60:0.223616 61:0.181811 62:0.145508 63:0.0397227 64:0.496679 65:0.910783 66:6.57255e-10 67:1.15574e-15 68:3.46649e-16 69:3.56774e-09 70:0.999999 71:0.244038 
1.775644923185482 1:0 2:0.0251387 3:0.00595567 4:0.126157 5:0.0738342 6:0.0682525 7:0.106079 8:0.0829242 9:0.0889251 10:0.0793034 11:0.0647638 12:0.0738576 13:0.10109 14:0.0501915 15:0.0266046 16:0.0514242 17:0.198351 18:0.00936797 19:0.125876 20:0.056982 21:0.236482 22:0.0572565 23:0.11898 24:0.118378 25:0.13619 26:0.157909 27:0.0390576 28:0.179074 29:0.061606 30:0.0118748 31:0.199471 32:0.193555 33:0.086417 34:0.106122 35:0.134359 36:0.210976 37:0.0821409 38:0.0984894 39:0.0847981 40:0.162248 41:0.118789 42:0.0544291 43:0.233423 44:0.375985 45:0.0332936 46:0.0208933 47:0.0586454 48:0.231037 49:0.233151 50:0.116685 51:0.0527924 52:0.0400545 53:0.0095278 54:0.145464 55:0.0713594 56:0.116918 57:0.0666706 58:0.0248658 59:0.127743 60:0.152806 61:0.0587095 62:0.06044 63:0.0437952 64:0.338101 65:0.91077 66:1.30747e-11 67:3.14741e-18 68:5.09848e-18 69:3.56774e-09 70:0.999999 71:0.244038 
0.9396451232365833 1:0 2:0.20008 3:0.0759677 4:0.111372 5:0.0542457 6:0.0922492 7:0.145573 8:0.0107479 9:0.0693076 10:0.0735487 11:0.212619 12:0.0281135 13:0.159958 14:0.184524 15:0.113517 16:0.100035 17:0.117179 18:0.0832255 19:0.181549 20:0.0611844 21:0.0356164 22:0.0684467 23:0.0435128 24:0.0643131 25:0.168128 26:0.11362 27:0.110411 28:0.102392 29:0.099909 30:0.035034 31:0.118754 32:0.351971 33:0.181925 34:0.197177 35:0.0931229 36:0.266237 37:0.232408 38:0.286131 39:0.186111 40:0.17647 41:0.0945977 42:0.00316414 43:0.233949 44:0.148546 45:0.0943157 46:0.166379 47:0.155589 48:0.112844 49:0.128316 50:0.1872 51:0.151568 52:0.16375 53:0.14189 54:0.0773108 55:0.154359 56:0.128096 57:0.0789925 58:0.165957 59:0.0416 60:0.0361286 61:0.129021 62:0.0881765 63:0.0604567 64:0.403764 65:0.910776 66:2.65816e-10 67:9.01337e-16 68:3.81559e-16 69:3.56774e-09 70:0.999999 71:0.244038 
1.851859322819864 1:0 2:0.207501 3:0.0445377 4:0.0907739 5:0.108383 6:0.0558854 7:0.110975 8:0.198424 9:0.0494159 10:0.0454494 11:0.111585 12:0.0495813 13:0.0777835 14:0.176002 15:0.136474 16:0.0517091 17:0.032563 18:0.104579 19:0.0818854 20:0.0806395 21:0.0666162 22:0.144426 23:0.344986 24:0.231665 25:0.0940163 26:0.0254967 27:0.0443156 28:0.480563 29:0.249758 30:0.111715 31:0.191316 32:0.195894 33:0.112581 34:0.372262 35:0.287461 36:0.209741 37:0.32824 38:0.344809 39:0.212623 40:0.251148 41:0.283766 42:0.0822705 43:0.113444 44:0.128425 45:0.0584055 46:0.0497189 47:0.0859188 48:0.169849 49:0.148128 50:0.0511195 51:0.112312 52:0.050183 53:0.0718337 54:0.118891 55:0.0159286 56:0.0466784 57:0.132463 58:0.0239804 59:0.116591 60:0.0701904 61:0.0802239 62:0.202976 63:0.0280623 64:0.445274 65:0.91078 66:4.93237e-10 67:3.84536e-16 68:1.45789e-16 69:3.56774e-09 70:0.999999 71:0.244038 
2 1:0 2:0.117601 3:0.0483086 4:0.0763653 5:0.105782 6:0.105503 7:0.13826 8:0.0582067 9:0.0537618 10:0.0732441 11:0.106392 12:0.0153086 13:0.0398208 14:0.146787 15:0.0647136 16:0.0286372 17:0.0637984 18:0.0528864 19:0.157524 20:0.224891 21:0.0974274 22:0.155673 23:0.101958 24:0.0924331 25:0.097311 26:0.0981677 27:0.0347975 28:0.0225622 29:0.0942732 30:0.107233 31:0.227296 32:0.136871 33:0.0583626 34:0.213302 35:0.0525753 36:0.214671 37:0.15652 38:0.323039 39:0.111477 40:0.046742 41:0.194912 42:0.233684 43:0.171849 44:0.121503 45:0.0877776 46:0.100883 47:0.14924 48:0.0744613 49:0.115491 50:0.0466814 51:0.0897662 52:0.0518039 53:0.123361 54:0.101299 55:0.0773097 56:0.0401202 57:0.160648 58:0.0603887 59:0.0900804 60:0.107656 61:0.0753719 62:0.116032 63:0.0559776 64:0.387096 65:0.910774 66:1.94773e-10 67:1.4147e-16 68:3.67672e-17 69:3.56774e-09 70:0.999999 71:0.244038 
1.651765268932925 1:0 2:0.15337 3:0.0600822 4:0.0489704 5:0.100812 6:0.105177 7:0.178793 8:0.0461875 9:0.0264382 10:0.155327 11:0.0441209 12:0.0174056 13:0.105247 14:0.0640264 15:0.0664315 16:0.0388962 17:0.0701534 18:0.132572 19:0.0703078 20:0.0800424 21:0.127574 22:0.141969 23:0.11107 24:0.205544 25:0.242067 26:0.21613 27:0.319022 28:0.101981 29:0.39048 30:0.223409 31:0.0816356 32:0.208565 33:0.21129 34:0.273752 35:0.0530228 36:0.110183 37:0.255056 38:0.202145 39:0.175551 40:0.0303027 41:0.236147 42:0.085634 43:0.0563769 44:0.145382 45:0.091539 46:0.136453 47:0.182496 48:0.206189 49:0.221814 50:0.037801 51:0.206081 52:0.0967433 53:0.150001 54:0.17899 55:0.136176 56:0.137721 57:0.15156 58:0.0356078 59:0.15778 60:0.0666219 61:0.180196 62:0.111765 63:0.0744163 64:0.415544 65:0.910774 66:2.02701e-10 67:5.64185e-16 68:1.48254e-16 69:3.56774e-09 70:0.999999 71:0.244038 
1.683935105780622 1:0 2:0.303934 3:0.0565503 4:0.0587211 5:0.105288 6:0.116257 7:0.0435784 8:0.158778 9:0.0501056 10:0.198038 11:0.0728981 12:0.0961761 13:0.132731 14:0.1472 15:0.095135 16:0.0218617 17:0.0833397 18:0.147934 19:0.191892 20:0.0706615 21:0.0653969 22:0.0164004 23:0.113792 24:0.0674554 25:0.176292 26:0.244939 27:0.092715 28:0.317139 29:0.254888 30:0.252207 31:0.191191 32:0.159299 33:0.365974 34:0.409968 35:0.231148 36:0.585708 37:0.165303 38:0.134359 39:0.151549 40:0.103326 41:0.265515 42:0.156481 43:0.193053 44:0.155835 45:0.0735537 46:0.211244 47:0.0998102 48:0.12497 49:0.199307 50:0.052856 51:0.0278399 52:0.316608 53:0.052903 54:0.087844 55:0.0337148 56:0.0648609 57:0.0805841 58:0.120234 59:0.0491679 60:0.159304 61:0.123088 62:0.196417 63:0.0277237 64:0.53063 65:0.910785 66:8.46904e-10 67:5.36617e-16 68:2.83865e-16 69:3.56774e-09 70:0.999999 71:0.244038 
2 1:0 2:0.231639 3:0.0417792 4:0.0144369 5:0.166199 6:0.0705945 7:0.345088 8:0.115836 9:0.104395 10:0.20641 11:0.034465 12:0.0731144 13:0.326543 14:0.11876 15:0.0072077 16:0.0501176 17:0.117325 18:0.121811 19:0.0918339 20:0.0798769 21:0.169127 22:0.245437 23:0.195168 24:0.0411344 25:0.055059 26:0.113277 27:0.127053 28:0.0523365 29:0.174809 30:0.0851077 31:0.139845 32:0.182131 33:0.311567 34:0.0337789 35:0.142296 36:0.203929 37:0.288421 38:0.126757 39:0.160129 40:0.26005 41:0.240661 42:0.115871 43:0.0687137 44:0.0455675 45:0.0706262 46:0.242967 47:0.192384 48:0.121572 49:0.0859159 50:0.0957283 51:0.16377 52:0.0911227 53:0.18182 54:0.102078 55:0.147386 56:0.241215 57:0.180068 58:0.0664114 59:0.117026 60:0.071043 61:0.173444 62:0.118325 63:0.0148279 64:0.481485 65:0.910778 66:4.30181e-10 67:1.66276e-16 68:4.27505e-17 69:3.56774e-09 70:0.999999 71:0.244038 
2 1:0 2:0.141801 3:0.0712438 4:0.0478385 5:0.118459 6:0.103905 7:0.174791 8:0.0600068 9:0.182898 10:0.0444123 11:0.195965 12:0.110893 13:0.0791768 14:0.128035 15:0.109449 16:0.00984927 17:0.110027 18:0.12974 19:0.0227728 20:0.0885281 21:0.116625 22:0.0689437 23:0.262801 24:0.0624407 25:0.102838 26:0.243676 27:0.147713 28:0.0950859 29:0.329321 30:0.131852 31:0.0596642 32:0.0620637 33:0.240555 34:0.134413 35:0.0355903 36:0.102392 37:0.152052 38:0.13365 39:0.0112448 40:0.0592285 41:0.289534 42:0.343427 43:0.102918 44:0.0537573 45:0.0819967 46:0.106063 47:0.0977305 48:0.207569 49:0.157292 50:0.116728 51:0.139423 52:0.125863 53:0.12045 54:0.266164 55:0.204121 56:0.0545244 57:0.063048 58:0.0568665 59:0.125372 60:0.167446 61:0.232001 62:0.130488 63:0.0473392 64:0.411444 65:0.910775 66:2.19367e-10 67:4.57814e-16 68:1.08886e-16 69:3.56774e-09 70:0.999999 71:0.244038 
1.535303454328002 1:0 2:0.138999 3:0.0460063 4:0.0589895 5:0.15642 6:0.149817 7:0.0601745 8:0.0797668 9:0.0574363 10:0.0882217 11:0.0857177 12:0.0848127 13:0.0673543 14:0.0751738 15:0.102639 16:0.0659833 17:0.121865 18:0.0748505 19:0.0629302 20:0.0688283 21:0.121864 22:0.141997 23:0.137014 24:0.0123458 25:0.0786244 26:0.0785419 27:0.203944 28:0.315781 29:0.167619 30:0.0855808 31:0.132527 32:0.144664 33:0.301964 34:0.15259 35:0.146465 36:0.252822 37:0.181041 38:0.117723 39:0.100455 40:0.211464 41:0.205602 42:0.17037 43:0.0689983 44:0.122455 45:0.118567 46:0.0384647 47:0.0936612 48:0.0590382 49:0.157757 50:0.0734919 51:0.0712179 52:0.0660866 53:0.0365756 54:0.110849 55:0.134255 56:0.204009 57:0.0247258 58:0.11137 59:0.119763 60:0.0891919 61:0.145569 62:0.146302 63:0.0296084 64:0.392972 65:0.910775 66:2.51662e-10 67:3.18358e-16 68:8.23899e-17 69:3.56774e-09 70:0.999999 71:0.244038 
2 1:0 2:0.138063 3:0.0518731 4:0.0662385 5:0.108839 6:0.112498 7:0.174453 8:0.130265 9:0.053311 10:0.0448711 11:0.0804604 12:0.0450454 13:0.0261648 14:0.0983332 15:0.0471556 16:0.0808513 17:0.0988724 18:0.0548482 19:0.0577793 20:0.100062 21:0.12884 22:0.103168 23:0.0746374 24:0.0823588 25:0.105451 26:0.15031 27:0.125737 28:0.13174 29:0.172544 30:0.160989 31:0.121457 32:0.129985 33:0.0946489 34:0.15865 35:0.172662 36:0.168306 37:0.0996086 38:0.151853 39:0.0912579 40:0.0890487 41:0.0429515 42:0.122955 43:0.0912667 44:0.254943 45:0.0505427 46:0.0410952 47:0.0859535 48:0.13171 49:0.071633 50:0.0954891 51:0.0237174 52:0.070272 53:0.105007 54:0.0981489 55:0.117705 56:0.114734 57:0.0853573 58:0.0823656 59:0.0154766 60:0.190918 61:0.163765 62:0.106876 63:0.0180659 64:0.387388 65:0.910775 66:2.51768e-10 67:2.59589e-16 68:2.57323e-17 69:3.56774e-09 70:0.999999 71:0.244038 
0.09942733803739283 1:0 2:0.0902022 3:0.0741019 4:0.0493223 5:0.0550514 6:0.0626122 7:0.179269 8:0.0514116 9:0.100107 10:0.123586 11:0.0229277 12:0.0577298 13:0.0432998 14:0.044207 15:0.0644842 16:0.0421197 17:0.111277 18:0.0611794 19:0.0441509 20:0.0646744 21:0.0903195 22:0.00875625 23:0.194425 24:0.0438516 25:0.0224226 26:0.222238 27:0.152283 28:0.131254 29:0.105968 30:0.216344 31:0.227012 32:0.164449 33:0.255398 34:0.120385 35:0.0684343 36:0.329783 37:0.114725 38:0.105614 39:0.22557 40:0.0593667 41:0.14356 42:0.0929514 43:0.101361 44:0.0937838 45:0.0441278 46:0.0760743 47:0.201611 48:0.142571 49:0.0438308 50:0.0609847 51:0.0749525 52:0.0942083 53:0.0564175 54:0.0766156 55:0.11182 56:0.0416536 57:0.112128 58:0.140974 59:0.103094 60:0.0783161 61:0.142778 62:0.0368566 63:0.0427957 64:0.341772 65:0.910772 66:6.54849e-11 67:6.62139e-16 68:1.03307e-16 69:3.56774e-09 70:0.999999 71:0.244038 
0.5101303300710757 1:0 2:0.201784 3:0.028405 4:0.0465003 5:0.142363 6:0.090357 7:0.0401037 8:0.0885117 9:0.135665 10:0.0321161 11:0.15733 12:0.0130817 13:0.0871572 14:0.0295795 15:0.165483 16:0.0647751 17:0.0609403 18:0.152131 19:0.212453 20:0.11175 21:0.277509 22:0.0699496 23:0.0798574 24:0.157401 25:0.185767 26:0.265973 27:0.289392 28:0.229046 29:0.268025 30:0.296224 31:0.518798 32:0.282484 33:0.406706 34:0.437561 35:0.034405 36:0.253644 37:0.15875 38:0.171804 39:0.0796438 40:0.144991 41:0.26938 42:0.0565894 43:0.156355 44:0.187801 45:0.0907419 46:0.19808 47:0.236138 48:0.10456 49:0.0395538 50:0.0295997 51:0.0501567 52:0.0288083 53:0.0925186 54:0.114135 55:0.104945 56:0.125628 57:0.0504882 58:0.019201 59:0.0701541 60:0.159378 61:0.132839 62:0.128712 63:0.0273823 64:0.418855 65:0.910778 66:4.3679e-10 67:2.38756e-16 68:1.28124e-16 69:3.56774e-09 70:0.999999 71:0.244038 
0.8362784375918014 1:0 2:0.0757118 3:0.0169275 4:0.0468581 5:0.0655665 6:0.120373 7:0.0926443 8:0.0595321 9:0.060816 10:0.0376776 11:0.0855033 12:0.156285 13:0.104739 14:0.101762 15:0.0726824 16:0.0762978 17:0.148049 18:0.0349053 19:0.091465 20:0.0701271 21:0.0624037 22:0.0267747 23:0.0573126 24:0.153014 25:0.143091 26:0.219603 27:0.130836 28:0.0742128 29:0.262067 30:0.136879 31:0.071582 32:0.0702013 33:0.0596334 34:0.145816 35:0.11414 36:0.432665 37:0.280784 38:0.0193131 39:0.211916 40:0.113795 41:0.307888 42:0.162163 43:0.114623 44:0.172279 45:0.0342161 46:0.108668 47:0.216297 48:0.0953535 49:0.0566187 50:0.0432071 51:0.199017 52:0.162388 53:0.0761399 54:0.0633629 55:0.0798029 56:0.140422 57:0.0957111 58:0.107927 59:0.0251616 60:0.112273 61:0.0404316 62:0.047245 63:0.0356244 64:0.36815 65:0.91077 66:5.96415e-11 67:1.73677e-17 68:4.14482e-18 69:3.56774e-09 70:0.999999 71:0.244038 
0.1221880983829589 1:0 2:0.248829 3:0.0558159 4:0.0515344 5:0.0909917 6:0.0324132 7:0.0319318 8:0.100846 9:0.103488 10:0.0503673 11:0.0807049 12:0.0298126 13:0.0525465 14:0.0565873 15:0.0586459 16:0.0972775 17:0.0463417 18:0.0377405 19:0.0761557 20:0.0757907 21:0.119433 22:0.152327 23:0.19988 24:0.0420854 25:0.0643064 26:0.139354 27:0.117771 28:0.224382 29:0.319452 30:0.339216 31:0.0616764 32:0.323442 33:0.302928 34:0.113242 35:0.247049 36:0.33539 37:0.254463 38:0.31668 39:0.249515 40:0.111162 41:0.0995584 42:0.324036 43:0.108577 44:0.114004 45:0.0150973 46:0.0713987 47:0.0551085 48:0.233647 49:0.161998 50:0.0397861 51:0.0540875 52:0.0286693 53:0.0951463 54:0.110742 55:0.0431246 56:0.108247 57:0.0402645 58:0.042181 59:0.124439 60:0.0855372 61:0.114531 62:0.191588 63:0.027556 64:0.466568 65:0.910782 66:6.9435e-10 67:7.02116e-16 68:4.10228e-16 69:3.56774e-09 70:0.999999 71:0.244038 
2 1:0 2:0.135677 3:0.0462287 4:0.0444019 5:0.160978 6:0.0437116 7:0.0865347 8:0.0552833 9:0.0582287 10:0.17722 11:0.1028 12:0.0185448 13:0.130163 14:0.0505764 15:0.156747 16:0.156121 17:0.117729 18:0.0545911 19:0.143502 20:0.0894752 21:0.160645 22:0.112319 23:0.166034 24:0.0962223 25:0.0312106 26:0.184933 27:0.0124083 28:0.129865 29:0.0652023 30:0.12776 31:0.0431566 32:0.130698 33:0.337559 34:0.156894 35:0.038783 36:0.204151 37:0.102074 38:0.10987 39:0.0557499 40:0.21821 41:0.1991 42:0.098557 43:0.0686943 44:0.09851 45:0.0780816 46:0.0730165 47:0.121287 48:0.133342 49:0.170755 50:0.0784663 51:0.168024 52:0.118998 53:0.205385 54:0.120208 55:0.0866277 56:0.0580338 57:0.0632675 58:0.164675 59:0.208172 60:0.0372964 61:0.110404 62:0.123615 63:0.0615572 64:0.392173 65:0.910774 66:2.36696e-10 67:2.00311e-16 68:5.25054e-17 69:3.56774e-09 70:0.999999 71:0.244038 
2 1:0 2:0.271888 3:0.0769597 4:0.0416936 5:0.0463072 6:0.0396297 7:0.109081 8:0.0115099 9:0.129994 10:0.138499 11:0.127093 12:0.0578642 13:0.0635103 14:0.0569511 15:0.121785 16:0.0536037 17:0.243936 18:0.0199804 19:0.263595 20:0.0966925 21:0.132461 22:0.0876948 23:0.131744 24:0.0474142 25:0.158472 26:0.0654525 27:0.148226 28:0.10129 29:0.145588 30:0.174873 31:0.0675547 32:0.176674 33:0.311515 34:0.178506 35:0.156269 36:0.0350891 37:0.0303911 38:0.196816 39:0.199178 40:0.121976 41:0.0835683 42:0.198152 43:0.282125 44:0.0923098 45:0.0594797 46:0.0568712 47:0.0417154 48:0.0850238 49:0.0781286 50:0.0560689 51:0.111103 52:0.151723 53:0.0597057 54:0.191774 55:0.0910076 56:0.0811039 57:0.192478 58:0.133231 59:0.0831069 60:0.130956 61:0.0659049 62:0.201995 63:0.0436383 64:0.484526 65:0.910784 66:7.76724e-10 67:1.32524e-15 68:8.86346e-16 69:3.56774e-09 70:0.999999 71:0.244038 
2 1:0 2:0.13674 3:0.118355 4:0.0603487 5:0.189099 6:0.28029 7:0.0699237 8:0.0598842 9:0.0389949 10:0.0184463 11:0.0828172 12:0.0970132 13:0.10233 14:0.233664 15:0.0323353 16:0.0622325 17:0.12298 18:0.195213 19:0.275756 20:0.115331 21:0.194869 22:0.155479 23:0.171291 24:0.161011 25:0.0627967 26:0.0529043 27:0.203942 28:0.164372 29:0.199913 30:0.110163 31:0.218485 32:0.138791 33:0.291203 34:0.0693668 35:0.200962 36:0.187028 37:0.47671 38:0.105997 39:0.064635 40:0.189813 41:0.218976 42:0.156292 43:0.211694 44:0.0775999 45:0.16119 46:0.269347 47:0.16803 48:0.144661 49:0.144545 50:0.176629 51:0.0978697 52:0.0920508 53:0.049291 54:0.255277 55:0.142339 56:0.0888811 57:0.082731 58:0.137813 59:0.0979123 60:0.100381 61:0.197891 62:0.180237 63:0.129887 64:0.378146 65:0.910779 66:3.77706e-10 67:1.11906e-15 68:5.62011e-16 69:3.56774e-09 70:0.999999 71:0.244038 
0.2433486513845369 1:0 2:0.20073 3:0.0749819 4:0.0479899 5:0.117424 6:0.0521336 7:0.034522 8:0.0657874 9:0.105796 10:0.0872467 11:0.0883601 12:0.00723269 13:0.136777 14:0.0913886 15:0.10124 16:0.0795376 17:0.139828 18:0.0995557 19:0.110535 20:0.144466 21:0.0859174 22:0.117506 23:0.100656 24:0.0882078 25:0.124654 26:0.263251 27:0.192975 28:0.365531 29:0.562663 30:0.208617 31:0.242846 32:0.141519 33:0.173693 34:0.103004 35:0.123396 36:0.216997 37:0.214666 38:0.146343 39:0.354842 40:0.282566 41:0.577302 42:0.0508249 43:0.341794 44:0.32357 45:0.0324314 46:0.143661 47:0.186583 48:0.158643 49:0.0881311 50:0.262828 51:0.152668 52:0.118574 53:0.122036 54:0.028666 55:0.0864369 56:0.0734743 57:0.0514696 58:0.0959031 59:0.129938 60:0.0218925 61:0.110582 62:0.209891 63:0.0985816 64:0.416479 65:0.91078 66:5.08513e-10 67:1.13907e-15 68:5.64964e-16 69:3.56774e-09 70:0.999999 71:0.244038 
0.3617598471550013 1:0 2:0.0941455 3:0.0551228 4:0.0611613 5:0.0839587 6:0.0418929 7:0.0771375 8:0.036519 9:0.0787167 10:0.0136014 11:0.0304386 12:0.121204 13:0.00504557 14:0.0582116 15:0.0466404 16:0.0654688 17:0.0519827 18:0.105157 19:0.0440112 20:0.0387529 21:0.1127 22:0.0618166 23:0.0471718 24:0.0750132 25:0.132929 26:0.0200792 27:0.0480775 28:0.136556 29:0.208727 30:0.270979 31:0.0173096 32:0.00865247 33:0.188664 34:0.133972 35:0.0883286 36:0.189786 37:0.0687312 38:0.100737 39:0.0691614 40:0.0970493 41:0.0579776 42:0.0786557 43:0.0756793 44:0.0815082 45:0.0722756 46:0.0881132 47:0.0732265 48:0.0737804 49:0.0834102 50:0.117333 51:0.0911987 52:0.0653398 53:0.0746008 54:0.062805 55:0.0925108 56:0.0927315 57:0.0259776 58:0.0578513 59:0.0254418 60:0.0722006 61:0.144518 62:0.100126 63:0.0597131 64:0.354663 65:0.910772 66:1.18309e-10 67:3.80516e-16 68:7.85458e-17 69:3.56774e-09 70:0.999999 71:0.244038 
1.752335262617712 1:0 2:0.402852 3:0.0542257 4:0.0705694 5:0.0493547 6:0.0902039 7:0.0681661 8:0.0598619 9:0.113593 10:0.0271758 11:0.131147 12:0.125525 13:0.0474889 14:0.019862 15:0.101221 16:0.0568385 17:0.113543 18:0.108835 19:0.195031 20:0.122752 21:0.238886 22:0.0777488 23:0.197644 24:0.0872705 25:0.091754 26:0.118637 27:0.17482 28:0.151363 29:0.24387 30:0.0816331 31:0.0781568 32:0.158818 33:0.122632 34:0.122033 35:0.0438304 36:0.165291 37:0.297492 38:0.192926 39:0.0478227 40:0.0731582 41:0.119977 42:0.187315 43:0.0798587 44:0.126524 45:0.0697231 46:0.0544421 47:0.0170175 48:0.162347 49:0.041264 50:0.0947371 51:0.138715 52:0.0465732 53:0.130095 54:0.0845906 55:0.0577847 56:0.191856 57:0.0320605 58:0.11419 59:0.142144 60:0.133426 61:0.0839997 62:0.318947 63:0.0287663 64:0.616304 65:0.910794 66:1.54287e-09 67:1.06398e-15 68:8.98112e-16 69:3.56774e-09 70:0.999999 71:0.244038 
0.1487939562252114 1:0 2:0.158418 3:0.0783627 4:0.0791777 5:0.0253567 6:0.0562115 7:0.15957 8:0.053933 9:0.182802 10:0.0978957 11:0.0915392 12:0.0783457 13:0.00979278 14:0.0417644 15:0.0307502 16:0.078789 17:0.0638719 18:0.129478 19:0.167939 20:0.0737664 21:0.15718 22:0.0299217 23:0.27316 24:0.0914595 25:0.203393 26:0.016904 27:0.408305 28:0.201164 29:0.182145 30:0.151781 31:0.0191678 32:0.13922 33:0.0354633 34:0.244503 35:0.498203 36:0.30884 37:0.181978 38:0.104847 39:0.204321 40:0.243388 41:0.154009 42:0.0758544 43:0.264468 44:0.241049 45:0.0243894 46:0.206591 47:0.0527578 48:0.0181807 49:0.0879038 50:0.102946 51:0.0641179 52:0.0739209 53:0.141523 54:0.0899629 55:0.130154 56:0.0774636 57:0.0851369 58:0.0936549 59:0.182191 60:0.0311723 61:0.0663726 62:0.148522 63:0.0193111 64:0.400188 65:0.910777 66:3.37014e-10 67:4.9758e-16 68:8.42876e-17 69:3.56774e-09 70:0.999999 71:0.244038 
1.23150031695868 1:0 2:0.0303404 3:0.0575772 4:0.100324 5:0.0392751 6:0.0521554 7:0.0968939 8:0.0522548 9:0.156065 10:0.0815362 11:0.230014 12:0.124811 13:0.0427824 14:0.0698919 15:0.196666 16:0.0652392 17:0.0552917 18:0.254787 19:0.247035 20:0.325892 21:0.210545 22:0.114288 23:0.0567656 24:0.151089 25:0.0385484 26:0.223198 27:0.361689 28:0.704491 29:0.272071 30:0.103304 31:0.50121 32:0.200852 33:0.364572 34:0.197921 35:0.395965 36:0.441324 37:0.298208 38:0.32933 39:0.0306992 40:0.627139 41:0.207423 42:0.20434 43:0.224968 44:0.00878071 45:0.580279 46:0.33647 47:0.116538 48:0.368702 49:0.0620003 50:0.127744 51:0.257635 52:0.0467353 53:0.174208 54:0.0949286 55:0.122687 56:0.014474 57:0.122057 58:0.106302 59:0.0734215 60:0.0740161 61:0.154585 62:0.02823 63:0.0567124 64:0.279638 65:0.910771 66:8.21472e-12 67:4.28832e-16 68:5.49107e-17 69:3.56774e-09 70:0.999999 71:0.244038 
2 1:0 2:0.128535 3:0.0667269 4:0.057938 5:0.0575102 6:0.0552078 7:0.111895 8:0.0470471 9:0.0477639 10:0.0602013 11:0.0929348 12:0.170648 13:0.00505136 14:0.0592573 15:0.100359 16:0.131353 17:0.123756 18:0.107794 19:0.0154183 20:0.163345 21:0.0701744 22:0.12041 23:0.264618 24:0.0794094 25:0.186773 26:0.176548 27:0.207931 28:0.0399114 29:0.222371 30:0.243527 31:0.0227115 32:0.168719 33:0.374385 34:0.167148 35:0.14405 36:0.215188 37:0.197711 38:0.0347338 39:0.0970928 40:0.131866 41:0.253721 42:0.127342 43:0.165723 44:0.19132 45:0.115109 46:0.16074 47:0.0669321 48:0.194029 49:0.309135 50:0.035045 51:0.0576298 52:0.0394535 53:0.0867487 54:0.146877 55:0.092251 56:0.15561 57:0.143626 58:0.147329 59:0.0748322 60:0.136527 61:0.121365 62:0.0470377 63:0.0352683 64:0.406868 65:0.910772 66:1.42451e-10 67:3.6248e-16 68:3.07966e-17 69:3.56774e-09 70:0.999999 71:0.244038 
2 1:0 2:0.0954592 3:0.0448547 4:0.0325086 5:0.138095 6:0.102487 7:0.0910829 8:0.0272245 9:0.0431118 10:0.0261901 11:0.116967 12:0.139094 13:0.146844 14:0.0609541 15:0.0966257 16:0.0181379 17:0.101955 18:0.0743898 19:0.104841 20:0.0552642 21:0.103837 22:0.100626 23:0.272119 24:0.0399162 25:0.0690533 26:0.195718 27:0.325262 28:0.160113 29:0.249652 30:0.111577 31:0.0349927 32:0.15218 33:0.228928 34:0.177503 35:0.0772657 36:0.150528 37:0.123023 38:0.162124 39:0.0101047 40:0.0355856 41:0.0782342 42:0.0580147 43:0.212741 44:0.0552832 45:0.175233 46:0.0139338 47:0.103722 48:0.0782594 49:0.0644444 50:0.0407057 51:0.130766 52:0.0899907 53:0.0978087 54:0.0468461 55:0.102803 56:0.144602 57:0.0366745 58:0.141287 59:0.0488349 60:0.0439201 61:0.110893 62:0.0718568 63:0.0584679 64:0.366193 65:0.910771 66:9.65426e-11 67:2.02542e-16 68:3.46101e-17 69:3.56774e-09 70:0.999999 71:0.244038 
2 1:0 2:0.279877 3:0.0763762 4:0.0900271 5:0.0745673 6:0.164226 7:0.127051 8:0.142937 9:0.114231 10:0.114061 11:0.058104 12:0.168649 13:0.0865666 14:0.0313606 15:0.120295 16:0.165551 17:0.148095 18:0.100208 19:0.145925 20:0.0984241 21:0.143161 22:0.155241 23:0.035833 24:0.134257 25:0.105281 26:0.0576611 27:0.235122 28:0.173339 29:0.200581 30:0.039988 31:0.0848418 32:0.252323 33:0.29072 34:0.0964451 35:0.218386 36:0.181532 37:0.193486 38:0.105551 39:0.119454 40:0.0888726 41:0.158892 42:0.436498 43:0.128552 44:0.0883241 45:0.180201 46:0.126283 47:0.144691 48:0.226477 49:0.0904957 50:0.082985 51:0.0705107 52:0.0574235 53:0.0954617 54:0.0878919 55:0.110509 56:0.114864 57:0.150594 58:0.0677433 59:0.167683 60:0.164141 61:0.110083 62:0.195423 63:0.0267401 64:0.516088 65:0.910784 66:7.78036e-10 67:9.93627e-16 68:5.00961e-16 69:3.56774e-09 70:0.999999 71:0.244038 
2 1:0 2:0.103909 3:0.0470213 4:0.017685 5:0.0334379 6:0.13127 7:0.0146309 8:0.0492636 9:0.248724 10:0.195596 11:0.0872087 12:0.0118612 13:0.0788956 14:0.111079 15:0.168074 16:0.0485646 17:0.169356 18:0.132493 19:0.0667536 20:0.0969191 21:0.139044 22:0.125824 23:0.0497259 24:0.0768246 25:0.131758 26:0.0818454 27:0.171029 28:0.227612 29:0.348174 30:0.298937 31:0.148178 32:0.114762 33:0.328915 34:0.135644 35:0.0979247 36:0.0844071 37:0.144586 38:0.0710687 39:0.238873 40:0.115162 41:0.147335 42:0.12413 43:0.228828 44:0.1035 45:0.170266 46:0.163046 47:0.1267 48:0.0880663 49:0.160242 50:0.0791423 51:0.0330809 52:0.0121612 53:0.0502994 54:0.134533 55:0.189392 56:0.0154627 57:0.0696327 58:0.0750662 59:0.175204 60:0.0853087 61:0.107937 62:0.094948 63:0.0308772 64:0.390929 65:0.910772 66:1.4334e-10 67:1.603e-16 68:1.5054e-17 69:3.56774e-09 70:0.999999 71:0.244038 
